%YAML:1.0
---
opencv_ml_svm:
   format: 3
   svmType: C_SVC
   kernel:
      type: RBF
      gamma: 5.0624999999999998e-01
   C: 1.2500000000000000e+01
   term_criteria: { epsilon:1.1920928955078125e-07, iterations:1000 }
   var_count: 144
   class_count: 2
   class_labels: !!opencv-matrix
      rows: 2
      cols: 1
      dt: i
      data: [ 1, 2 ]
   sv_total: 1565
   support_vectors:
      - [ 4.35489565e-01, 4.35489565e-01, 4.35489565e-01, 3.75689156e-02,
          4.51767258e-02, 1.84745118e-01, 1.29252493e-01, 4.35489565e-01,
          4.27499622e-01, 4.35248822e-01, 4.35248822e-01, 1.82259470e-01,
          2.99794413e-03, 2.31116135e-02, 1.21173538e-01, 4.35248822e-01,
          4.35248822e-01, 4.35248822e-01, 4.26745743e-01, 2.38376623e-03,
          7.15129869e-03, 1.11565456e-01, 4.26745743e-01, 4.26745743e-01,
          4.26745743e-01, 2.69580781e-01, 4.26745743e-01, 4.42906052e-01,
          6.33090138e-02, 6.70044497e-02, 1.40956819e-01, 4.42906052e-01,
          4.42906052e-01, 1.84891790e-01, 3.85177046e-01, 4.42906052e-01,
          5.04438996e-01, 5.04438996e-01, 4.59652096e-01, 5.04438996e-01,
          3.69325019e-02, 4.68212664e-02, 7.44423866e-02, 8.69369432e-02,
          6.04149811e-02, 3.91674459e-01, 4.40038443e-01, 1.59554973e-01,
          6.53944910e-02, 6.41373964e-03, 1.94640353e-01, 4.40038443e-01,
          4.40038443e-01, 4.40038443e-01, 5.85305035e-01, 1.19052287e-02,
          1.40662771e-02, 2.47802734e-02, 2.02745944e-01, 1.89937502e-01,
          3.97354782e-01, 2.70120084e-01, 5.85305035e-01, 5.98795414e-01,
          9.24943760e-03, 9.19060968e-03, 3.27450745e-02, 4.51852381e-01,
          1.15568735e-01, 5.72651066e-02, 2.34223917e-01, 5.98795414e-01,
          4.97047573e-01, 4.97047573e-01, 4.97047573e-01, 4.97047573e-01,
          5.31053841e-02, 1.14393663e-02, 4.55659479e-02, 2.99213193e-02,
          2.97988616e-02, 1.30159020e-01, 3.41570854e-01, 3.67854893e-01,
          3.67854893e-01, 3.67854893e-01, 3.67854893e-01, 3.67854893e-01,
          2.25409672e-01, 3.67854893e-01, 4.21882898e-01, 3.58611956e-04,
          0., 1.37138069e-01, 5.32906473e-01, 4.73287404e-01,
          7.25332052e-02, 2.54014377e-02, 5.32906473e-01, 4.48048562e-01,
          1.60485812e-04, 0., 7.80415982e-02, 4.48048562e-01,
          4.41726029e-01, 3.49587590e-01, 2.64306754e-01, 4.48048562e-01,
          4.19315815e-01, 4.19315815e-01, 4.19315815e-01, 4.19315815e-01,
          4.19315815e-01, 3.41398090e-01, 7.59037351e-03, 5.77065255e-03,
          6.24325918e-03, 5.21259643e-02, 1.97890475e-01, 7.72470608e-02,
          4.20948081e-02, 6.23153448e-01, 6.23153448e-01, 4.09285158e-01,
          2.46272795e-03, 6.80261874e-04, 7.94077590e-02, 0.,
          1.46507984e-02, 1.66200116e-01, 6.24451041e-01, 6.24451041e-01,
          4.21035677e-01, 2.71604061e-02, 4.16625366e-02, 5.00530154e-02,
          2.76257662e-04, 2.59067044e-02, 2.12948754e-01, 7.22649992e-01,
          6.15193307e-01, 2.04058513e-01, 1.18687665e-02, 4.23806943e-02 ]
      - [ 5.37897110e-01, 6.78927451e-03, 2.77709868e-02, 2.83501774e-01,
          7.34177679e-02, 7.17403814e-02, 1.86817974e-01, 5.37897110e-01,
          5.37897110e-01, 5.15884876e-01, 6.60425723e-02, 0.,
          2.90222582e-03, 5.44271199e-04, 7.59599060e-02, 4.31620061e-01,
          5.15884876e-01, 5.15884876e-01, 6.95455372e-01, 1.57230929e-01,
          0., 0., 0., 0., 2.66785850e-03, 3.18202041e-02, 6.95455372e-01,
          6.98257864e-01, 4.31718141e-01, 0., 0., 2.67896932e-02,
          6.52902247e-03, 0., 6.83215912e-04, 5.64202428e-01,
          3.73966575e-01, 3.73966575e-01, 3.55411232e-01, 3.73966575e-01,
          1.19505547e-01, 1.28682226e-01, 3.73966575e-01, 3.73966575e-01,
          3.73966575e-01, 4.13750708e-01, 4.13750708e-01, 2.95679480e-01,
          4.13750708e-01, 4.13750708e-01, 2.05652174e-02, 1.97512582e-01,
          1.21231593e-01, 4.11765248e-01, 6.37843251e-01, 1.37285903e-01,
          3.41838528e-03, 3.99195582e-01, 4.85335112e-01, 1.16306776e-02,
          3.71122211e-02, 2.88820378e-02, 4.13128018e-01, 4.24422890e-01,
          3.32726657e-01, 0., 6.22639209e-02, 4.13281292e-01,
          4.24422890e-01, 4.24422890e-01, 2.92826086e-01, 2.90213108e-01,
          4.04506028e-01, 3.35719377e-01, 7.55445659e-02, 9.33558345e-02,
          4.04506028e-01, 4.04506028e-01, 4.04506028e-01, 4.04506028e-01,
          2.25174889e-01, 2.57780880e-01, 2.47998714e-01, 2.69297719e-01,
          5.05806029e-01, 5.05806029e-01, 1.25275329e-01, 5.05806029e-01,
          1.01984836e-01, 2.93053724e-02, 2.66544014e-01, 4.20163758e-02,
          5.45702549e-03, 6.76754475e-01, 6.76754475e-01, 4.81280088e-02,
          3.86239626e-02, 1.19307060e-02, 2.14327518e-02, 1.01736166e-01,
          9.42008162e-04, 0., 5.14530718e-01, 5.14530718e-01,
          1.30138561e-01, 2.18466356e-01, 4.62950379e-01, 4.19571012e-01,
          4.86602373e-02, 1.72513761e-02, 2.28415290e-03, 1.82610899e-02,
          5.71695983e-01, 5.71695983e-01, 5.71695983e-01, 9.45023149e-02,
          4.29842807e-02, 8.56114104e-02, 0., 1.59949705e-01,
          1.72830969e-01, 5.52475393e-01, 5.52475393e-01, 5.52475393e-01,
          1.24054179e-01, 2.49481294e-02, 7.76957422e-02, 0.,
          8.03298205e-02, 6.54886305e-01, 6.54886305e-01, 3.34949136e-01,
          1.04914866e-01, 0., 4.72067250e-03, 1.16567705e-02, 0., 0.,
          7.04035521e-01, 7.04035521e-01, 4.42084624e-03, 1.41688029e-03,
          0., 3.85036990e-02 ]
      - [ 4.90120023e-01, 1.40782725e-02, 6.50604535e-03, 3.28324959e-02,
          7.01843873e-02, 1.67302027e-01, 4.90120023e-01, 4.90120023e-01,
          4.90120023e-01, 4.87442315e-01, 1.32633448e-01, 1.00855164e-01,
          4.80220653e-02, 4.77107838e-02, 1.11290917e-01, 4.87442315e-01,
          4.87442315e-01, 4.87442315e-01, 5.18534839e-01, 3.62888694e-01,
          5.18534839e-01, 3.23226452e-02, 0., 2.38255654e-02,
          1.15025252e-01, 2.04094902e-01, 5.18534839e-01, 5.51634371e-01,
          5.51634371e-01, 2.85624206e-01, 2.79545761e-03, 0., 0., 0.,
          9.66610271e-04, 5.51634371e-01, 1.60097495e-01, 2.18622059e-01,
          1.25487253e-01, 4.13026005e-01, 2.85331368e-01, 4.13026005e-01,
          4.13026005e-01, 4.13026005e-01, 3.78053039e-01, 4.78536457e-01,
          4.73108828e-01, 1.66582108e-01, 2.48454630e-01, 1.34135187e-01,
          6.09040670e-02, 3.07766527e-01, 3.27861190e-01, 4.78536457e-01,
          7.28808582e-01, 1.21834219e-01, 1.42381443e-02, 9.65705961e-02,
          1.16923757e-01, 8.89324769e-03, 3.06210071e-02, 2.04927586e-02,
          6.49679542e-01, 5.89648962e-01, 5.89648962e-01, 2.74408236e-02,
          5.67145925e-03, 2.86269367e-01, 3.47537071e-01, 1.97399780e-01,
          8.78177136e-02, 2.20328003e-01, 3.74896020e-01, 3.74896020e-01,
          2.24998251e-01, 3.17177594e-01, 3.74896020e-01, 3.74896020e-01,
          3.74896020e-01, 3.74896020e-01, 4.17902470e-02, 4.68126535e-01,
          3.59299928e-01, 3.47696483e-01, 4.68126535e-01, 4.68126535e-01,
          8.20614919e-02, 2.45719135e-01, 6.77899495e-02, 1.27279818e-01,
          5.68148553e-01, 1.31104346e-02, 0., 5.68148553e-01,
          5.68148553e-01, 3.76933143e-02, 5.06009199e-02, 1.19624361e-02,
          1.47146359e-01, 2.79736221e-01, 3.02821919e-02, 0.,
          3.90923113e-01, 3.90923113e-01, 3.90923113e-01, 3.90923113e-01,
          3.90923113e-01, 3.90923113e-01, 5.64432070e-02, 9.29478705e-02,
          0., 9.91180390e-02, 6.11227572e-01, 6.11227572e-01,
          4.59697574e-01, 1.17161706e-01, 7.10316643e-04, 0., 0., 0.,
          5.07589281e-01, 5.07589281e-01, 4.67714041e-01, 5.07589281e-01,
          5.68631925e-02, 0., 0., 0., 0., 7.04566360e-01, 7.04566360e-01,
          1.18057709e-02, 0., 0., 0., 1.89268440e-02, 0., 0.,
          6.97426319e-01, 6.97426319e-01, 3.04255951e-02, 4.19052504e-03,
          8.59841257e-02, 1.07407078e-01 ]
      - [ 5.86250722e-01, 5.86250722e-01, 1.75676569e-02, 0.,
          8.88149196e-04, 0., 1.36205643e-01, 1.68523058e-01,
          5.09416282e-01, 6.90168023e-01, 9.78160873e-02, 3.57620593e-04,
          0., 0., 0., 0., 1.75722778e-01, 6.90168023e-01, 3.20430785e-01,
          1.43960360e-02, 0., 0., 0., 0., 0., 6.65601492e-01,
          6.68889999e-01, 6.08741879e-01, 6.73424453e-02, 0., 0., 0., 0.,
          3.56531143e-02, 4.96973395e-01, 6.08741879e-01, 5.27063668e-01,
          5.27063668e-01, 5.27063668e-01, 3.88713367e-02, 1.29223958e-01,
          2.10409582e-01, 2.97157586e-01, 8.73185024e-02, 5.42118400e-02,
          4.01579201e-01, 2.55440801e-01, 1.74275249e-01, 4.01579201e-01,
          4.01579201e-01, 3.89260918e-01, 2.10980877e-01, 2.43445933e-01,
          4.01579201e-01, 4.26271074e-02, 3.37524852e-03, 1.49101140e-02,
          7.99153298e-02, 8.65341276e-02, 4.94755805e-01, 4.94755805e-01,
          4.94755805e-01, 4.94755805e-01, 2.25206286e-01, 3.44103761e-03,
          0., 7.78141692e-02, 4.33332771e-01, 4.33332771e-01,
          4.33332771e-01, 4.33332771e-01, 4.33332771e-01, 8.97789374e-04,
          3.98454159e-01, 4.08796161e-01, 4.08796161e-01, 4.08796161e-01,
          4.08796161e-01, 4.08796161e-01, 3.97150330e-02, 8.97789374e-04,
          0., 2.08600461e-01, 4.59390700e-01, 4.59390700e-01,
          4.59390700e-01, 4.59390700e-01, 3.28200728e-01, 4.58739279e-03,
          1.11186050e-03, 0., 1.63197853e-02, 8.25561881e-02,
          1.81574970e-01, 5.62531888e-01, 5.62531888e-01, 5.62531888e-01,
          6.98391199e-02, 1.12836426e-02, 4.37978981e-03, 2.42467131e-02,
          9.85714700e-03, 4.24972773e-01, 5.00385523e-01, 5.00385523e-01,
          5.00385523e-01, 2.00039208e-01, 1.50078565e-01, 3.13070719e-04,
          2.44301581e-03, 2.46069834e-01, 5.19216120e-01, 5.19216120e-01,
          5.19216120e-01, 3.54080677e-01, 1.13499425e-02, 3.13070719e-04,
          0., 2.25129183e-02, 4.09784466e-01, 5.24809241e-01,
          5.24809241e-01, 5.24809241e-01, 7.38669140e-03, 0., 0., 0.,
          4.99561476e-03, 2.11913139e-02, 1.47947550e-01, 6.65850759e-01,
          6.65850759e-01, 2.90300488e-01, 1.16908387e-03, 0., 0.,
          5.34305982e-02, 2.17214283e-02, 2.07985397e-02, 6.12804294e-01,
          6.12804294e-01, 4.66877371e-01, 1.22573383e-01, 7.78809562e-02 ]
      - [ 6.28724277e-01, 2.58193523e-01, 1.43802585e-02, 5.32823950e-02,
          3.28222178e-02, 0., 0., 3.63795608e-01, 6.28724277e-01,
          6.19295120e-01, 8.17854777e-02, 3.82908300e-04, 1.80988840e-03,
          8.53156787e-04, 0., 0., 4.69116926e-01, 6.19295120e-01,
          6.39318287e-01, 3.86673510e-02, 0., 0., 0., 0., 4.82888380e-03,
          4.17902797e-01, 6.39318287e-01, 5.73347747e-01, 2.78644282e-02,
          0., 1.84221994e-02, 4.00223099e-02, 0., 7.33089000e-02,
          5.73347747e-01, 5.73347747e-01, 2.91747749e-01, 1.58543587e-01,
          5.69897331e-02, 5.94040811e-01, 5.94040811e-01, 0., 0.,
          5.63273840e-02, 4.14277732e-01, 1.93984509e-01, 9.35094577e-05,
          2.03210069e-03, 5.58736384e-01, 5.58736384e-01, 9.61800339e-04,
          0., 1.42219737e-01, 5.58736384e-01, 5.71672797e-01,
          7.13376445e-04, 0., 1.05508156e-01, 5.71672797e-01,
          4.16501611e-02, 0., 3.15408781e-02, 5.71672797e-01,
          4.11264867e-01, 6.52873656e-04, 0., 5.35729015e-03,
          4.16362971e-01, 3.65020931e-01, 4.16362971e-01, 4.16362971e-01,
          4.16362971e-01, 5.63947201e-01, 1.47477731e-01, 8.04711282e-02,
          5.63947201e-01, 5.63947201e-01, 3.71918678e-02, 3.81419063e-03,
          1.18425293e-02, 1.02449656e-01, 3.27419460e-01, 1.00472346e-02,
          2.05676514e-03, 5.50779045e-01, 5.50779045e-01, 3.02746333e-02,
          5.89367095e-03, 9.99255180e-02, 5.19172072e-01, 2.28521377e-01,
          0., 0., 1.67439133e-01, 6.93374574e-01, 6.14828944e-01,
          8.43781680e-02, 6.65998608e-02, 2.06112415e-01, 3.96355391e-01,
          0., 0., 5.16631966e-03, 5.00854850e-01, 5.00854850e-01,
          2.63361841e-01, 1.26282662e-01, 5.00854850e-01, 4.93401617e-01,
          4.93401617e-01, 1.10365741e-01, 4.93401617e-01, 4.93401617e-01,
          4.30328399e-03, 2.43010512e-03, 1.33309478e-03, 9.53129902e-02,
          4.83063847e-01, 6.53880760e-02, 3.55590339e-04, 5.83724305e-02,
          4.83063847e-01, 3.40778649e-01, 1.16873188e-02, 4.13731217e-01,
          4.83063847e-01, 4.04010057e-01, 2.28938475e-01, 1.87729634e-02,
          4.04010057e-01, 4.04010057e-01, 3.59187961e-01, 6.09783791e-02,
          3.96948367e-01, 4.04010057e-01, 4.31179732e-01, 1.29539356e-01,
          1.17536157e-03, 1.21728927e-01, 4.31179732e-01, 4.31179732e-01,
          1.85777724e-01, 4.31179732e-01, 4.31179732e-01 ]
      - [ 4.78471428e-01, 2.64987767e-01, 4.16940600e-02, 0., 0.,
          2.12980688e-01, 4.78471428e-01, 4.37148184e-01, 4.78471428e-01,
          4.35155839e-01, 4.35155839e-01, 4.35155839e-01, 2.21942946e-01,
          1.21525275e-02, 1.22331575e-01, 2.21467033e-01, 3.53258789e-01,
          4.35155839e-01, 5.20568430e-01, 4.62030202e-01, 3.03580184e-02,
          5.49034961e-02, 7.29879662e-02, 1.08391337e-01, 1.80685982e-01,
          4.30914015e-01, 5.20568430e-01, 6.81200922e-01, 1.71760514e-01,
          7.00059766e-03, 1.29288003e-01, 1.21877007e-01, 1.64107624e-02,
          0., 6.11638613e-02, 6.81200922e-01, 4.16815102e-01,
          4.16815102e-01, 4.16815102e-01, 1.67777970e-01, 3.40854116e-02,
          4.16815102e-01, 4.16815102e-01, 2.74805784e-01, 1.49441436e-01,
          4.55574900e-01, 4.55574900e-01, 4.55574900e-01, 4.55574900e-01,
          1.23353302e-02, 5.58231957e-02, 1.78886712e-01, 1.64506435e-01,
          3.20818126e-01, 3.78724664e-01, 3.68322670e-01, 6.29916415e-02,
          1.36297271e-01, 3.47632289e-01, 3.78724664e-01, 3.78724664e-01,
          3.78724664e-01, 3.78724664e-01, 3.85429204e-01, 3.85429204e-01,
          3.85429204e-01, 3.85429204e-01, 3.85429204e-01, 2.94136971e-01,
          1.04038320e-01, 8.64573866e-02, 3.85429204e-01, 2.08341032e-02,
          1.49945617e-01, 4.02704686e-01, 4.02704686e-01, 4.02704686e-01,
          4.02704686e-01, 4.02704686e-01, 4.02704686e-01, 5.74366190e-03,
          1.56280577e-01, 1.68224856e-01, 5.20206034e-01, 6.63951099e-01,
          4.43396091e-01, 1.11757023e-02, 9.56756324e-02, 1.40771911e-01,
          5.92235178e-02, 1.66459218e-01, 5.41231856e-02, 3.92205343e-02,
          4.76737410e-01, 4.76737410e-01, 1.45127654e-01, 1.81344017e-01,
          4.76737410e-01, 4.76737410e-01, 3.99717659e-01, 3.99717659e-01,
          3.99717659e-01, 1.53643876e-01, 3.99717659e-01, 3.99717659e-01,
          5.90860471e-02, 1.01310961e-01, 3.99717659e-01, 5.50066470e-04,
          0., 4.29521920e-03, 2.42973462e-01, 5.51607788e-01,
          5.51607788e-01, 5.51607788e-01, 1.50409102e-01, 5.50066470e-04,
          0., 0., 3.49961556e-02, 7.03103006e-01, 7.03103006e-01,
          4.44489643e-02, 2.88660079e-02, 1.54876700e-02, 0.,
          1.83308944e-02, 0., 4.04136896e-04, 7.00111389e-01,
          7.00111389e-01, 1.31431047e-03, 0., 2.72586960e-02,
          1.07787222e-01, 7.21579567e-02, 3.30562852e-02, 5.52221853e-03,
          1.51717469e-01, 7.15054452e-01, 6.69172049e-01, 0.,
          3.69149563e-03, 6.63812459e-02 ]
      - [ 5.44343650e-01, 5.44343650e-01, 3.07057083e-01, 7.88430944e-02,
          0., 0., 2.51694079e-02, 6.70835152e-02, 5.44343650e-01,
          6.44838393e-01, 7.24704638e-02, 1.79146640e-02, 1.45528028e-02,
          0., 0., 3.33557315e-02, 3.93740714e-01, 6.44838393e-01,
          5.03121614e-01, 2.23046206e-02, 0., 0., 0., 0., 4.84854281e-01,
          5.03121614e-01, 5.03121614e-01, 6.82627141e-01, 4.93954383e-02,
          0., 0., 0., 0., 5.84870502e-02, 2.35298485e-01, 6.82627141e-01,
          4.96665239e-01, 4.96665239e-01, 4.96665239e-01, 4.46025342e-01,
          3.24372686e-02, 2.10239459e-02, 6.66204700e-03, 4.44203280e-02,
          2.29259834e-01, 3.07192266e-01, 2.21516758e-01, 2.31922865e-01,
          1.27138078e-01, 3.98305058e-01, 3.98305058e-01, 3.98305058e-01,
          3.84765327e-01, 3.98305058e-01, 4.35422480e-01, 2.49159476e-03,
          0., 2.49801904e-01, 5.17922640e-01, 3.50700855e-01,
          1.89504012e-01, 2.17799917e-01, 5.17922640e-01, 5.15837669e-01,
          5.97649626e-03, 0., 3.24510127e-01, 5.15837669e-01,
          1.62643582e-01, 1.63603544e-01, 1.94990337e-01, 5.15837669e-01,
          4.61695045e-02, 3.48208815e-01, 4.94909614e-01, 4.94909614e-01,
          4.94909614e-01, 3.62590671e-01, 7.28511810e-02, 8.80054105e-03,
          3.57905054e-03, 4.89721261e-03, 3.51807363e-02, 1.09840199e-01,
          2.05208406e-01, 5.59428513e-01, 5.59428513e-01, 5.59428513e-01,
          9.54194646e-03, 2.17584753e-03, 1.06826648e-02, 1.01756090e-02,
          7.90961925e-03, 3.55677545e-01, 5.36956370e-01, 5.36956370e-01,
          5.36956370e-01, 2.13177800e-02, 4.92958911e-02, 6.79872185e-02,
          2.37556286e-02, 3.28948982e-02, 6.72148168e-01, 6.72148168e-01,
          2.58110702e-01, 8.39110538e-02, 2.50667352e-02, 9.57310349e-02,
          2.56913510e-04, 1.36916228e-02, 4.00138617e-01, 5.61679363e-01,
          5.61679363e-01, 4.45711792e-01, 6.66089654e-02, 5.43657830e-03,
          2.56913510e-04, 0., 3.86057049e-03, 2.63016447e-02,
          8.55854824e-02, 6.93581641e-01, 6.93581641e-01, 1.51377439e-01,
          3.09941475e-03, 2.97532720e-03, 8.96088313e-03, 2.66925897e-02,
          1.62238747e-01, 9.11123157e-02, 5.55014014e-01, 5.55014014e-01,
          5.55014014e-01, 1.51611701e-01, 1.09243698e-01, 1.10795535e-01,
          3.76377165e-01, 5.70269406e-01, 1.02938153e-01, 5.70269406e-01,
          3.48431766e-01, 2.15651214e-01, 1.49610341e-02, 1.05950110e-01 ]
      - [ 4.81324345e-01, 2.30531946e-01, 2.07856689e-02, 0., 0.,
          1.22159682e-01, 4.81324345e-01, 4.81324345e-01, 4.81324345e-01,
          4.32021350e-01, 4.32021350e-01, 4.32021350e-01, 1.18904158e-01,
          6.55664653e-02, 1.12782363e-02, 2.09542394e-01, 4.32021350e-01,
          4.32021350e-01, 5.34015715e-01, 3.64411533e-01, 4.61948477e-02,
          3.30456048e-02, 3.03010680e-02, 0., 1.19650654e-01,
          5.22556365e-01, 5.34015715e-01, 6.93523526e-01, 1.65563822e-01,
          1.51398676e-02, 0., 0., 0., 0., 5.90472259e-02, 6.93523526e-01,
          4.03583527e-01, 4.03583527e-01, 3.77629846e-01, 9.11375433e-02,
          1.73725709e-02, 4.03583527e-01, 4.03583527e-01, 3.91501337e-01,
          1.99910313e-01, 4.71179098e-01, 4.71179098e-01, 4.68754321e-01,
          2.77598143e-01, 5.62868826e-02, 2.84190997e-02, 2.09378064e-01,
          1.85114279e-01, 4.15211529e-01, 3.98984045e-01, 3.98984045e-01,
          5.31853549e-02, 1.21263333e-01, 3.38021666e-01, 3.98984045e-01,
          3.98984045e-01, 3.55820715e-01, 3.17585677e-01, 3.88706386e-01,
          3.88706386e-01, 3.88706386e-01, 3.88706386e-01, 3.88706386e-01,
          2.75397241e-01, 7.72880316e-02, 8.79989937e-02, 3.88706386e-01,
          3.12536806e-02, 2.84278303e-01, 4.25701767e-01, 4.25701767e-01,
          4.25701767e-01, 4.25701767e-01, 4.25701767e-01, 8.85383934e-02,
          2.76267761e-03, 2.85594851e-01, 2.88696736e-01, 5.11072040e-01,
          5.11072040e-01, 5.11072040e-01, 3.53359841e-02, 1.37399256e-01,
          1.40813798e-01, 8.02874938e-02, 1.13029927e-01, 7.96046332e-02,
          7.87040070e-02, 3.21327984e-01, 4.25077647e-01, 4.25077647e-01,
          4.25077647e-01, 4.25077647e-01, 3.80040973e-01, 4.75134067e-02,
          4.72853869e-01, 4.72853869e-01, 4.72853869e-01, 4.72853869e-01,
          1.73067778e-01, 1.40886769e-01, 1.89700902e-01, 1.13439247e-01,
          0., 0., 6.60415515e-02, 3.20492983e-01, 6.19704425e-01,
          6.19704425e-01, 3.44482541e-01, 0., 0., 0., 0., 4.75290343e-02,
          7.03442216e-01, 7.03442216e-01, 3.18639614e-02, 6.46976102e-03,
          0., 0., 0., 7.46080838e-03, 1.36482604e-02, 2.77331382e-01,
          8.80026996e-01, 2.90715277e-01, 2.13200271e-01, 9.81856883e-02,
          2.59474525e-03, 0., 3.42323259e-02, 1.83550224e-01,
          5.65997005e-01, 7.81714439e-01, 1.45877048e-01, 3.15211266e-02,
          6.01851940e-02, 3.10565112e-03 ]
      - [ 4.21068728e-01, 4.21068728e-01, 1.62131228e-02, 5.56083070e-03,
          2.38266200e-01, 2.94223428e-01, 3.78108889e-01, 4.21068728e-01,
          4.21068728e-01, 5.95053375e-01, 5.05745351e-01, 5.23043214e-04,
          3.15967277e-02, 1.67869970e-01, 1.47833945e-02, 1.13468189e-02,
          2.40171775e-02, 5.95053375e-01, 5.74672699e-01, 3.54811996e-02,
          0., 2.54386384e-02, 4.00043465e-02, 2.46520434e-03,
          1.68499316e-03, 5.74672699e-01, 5.74672699e-01, 6.35114789e-01,
          3.72194350e-01, 0., 0., 4.28151973e-02, 8.04784894e-02,
          7.33363302e-03, 2.00062573e-01, 6.35114789e-01, 5.01038492e-01,
          5.01038492e-01, 5.01038492e-01, 1.92553207e-01, 1.53594121e-01,
          2.00598106e-01, 3.66518140e-01, 7.42184073e-02, 3.35557945e-02,
          3.73636097e-01, 3.73636097e-01, 3.73636097e-01, 3.73636097e-01,
          3.73636097e-01, 3.73636097e-01, 3.73636097e-01, 7.13637769e-02,
          1.18097067e-01, 3.78469110e-01, 3.28049928e-01, 3.78469110e-01,
          3.70212644e-01, 1.59693658e-01, 3.78469110e-01, 9.92386192e-02,
          3.78469110e-01, 3.78469110e-01, 5.78590512e-01, 2.68788397e-01,
          4.15933901e-04, 1.74256158e-03, 2.98224300e-01, 5.78590512e-01,
          9.91446674e-02, 1.14926547e-01, 3.74783516e-01, 2.81685255e-02,
          3.67787242e-01, 4.59654629e-01, 4.59654629e-01, 4.59654629e-01,
          2.66437143e-01, 3.90028864e-01, 4.77110222e-02, 1.06383627e-02,
          5.68110636e-03, 4.07964200e-01, 4.07964200e-01, 3.88781279e-01,
          4.07964200e-01, 4.07964200e-01, 4.07964200e-01, 1.12104520e-01,
          0., 1.15703819e-02, 4.63708699e-01, 4.63708699e-01,
          9.75055695e-02, 4.63708699e-01, 4.63708699e-01, 3.54199558e-01,
          6.72153383e-03, 1.10256365e-02, 2.24598944e-02, 1.15150993e-03,
          4.35298251e-04, 3.71139757e-02, 2.78059274e-01, 7.80439556e-01,
          5.50417304e-01, 1.19478591e-02, 2.86830813e-02, 0., 0.,
          2.61553600e-02, 6.86617076e-01, 6.86617076e-01, 2.20567703e-01,
          2.76358202e-02, 1.27124237e-02, 0., 1.70550818e-04,
          3.22764248e-01, 5.88652432e-01, 3.91654134e-01, 5.88652432e-01,
          2.08636537e-01, 0., 0., 0., 9.40760310e-06, 6.63315952e-02,
          1.88434973e-01, 1.27688289e-01, 6.80230796e-01, 6.80230796e-01,
          1.07521519e-01, 2.91986368e-03, 0., 0., 0., 0., 7.61754438e-02,
          5.73727846e-01, 5.73727846e-01, 5.73727846e-01, 3.12637538e-02,
          0. ]
      - [ 4.43705857e-01, 4.43705857e-01, 1.05095059e-01, 0.,
          1.21832350e-02, 0., 4.43705857e-01, 4.43705857e-01,
          4.43705857e-01, 6.08779609e-01, 6.08779609e-01, 7.31097385e-02,
          0., 3.48927602e-02, 8.30007344e-02, 1.34911835e-02,
          3.20837367e-04, 4.88940090e-01, 5.63352585e-01, 1.27426341e-01,
          2.91841128e-03, 9.77618061e-03, 5.63352585e-01, 1.60799578e-01,
          8.82475823e-03, 0., 5.63352585e-01, 5.74448526e-01, 0., 0.,
          6.25581369e-02, 5.74448526e-01, 1.94182768e-02, 0., 0.,
          5.74448526e-01, 4.86694485e-01, 4.86694485e-01, 4.86694485e-01,
          8.13368149e-03, 2.17027385e-02, 6.83283946e-03, 4.86694485e-01,
          2.13286877e-01, 3.97222377e-02, 5.25782585e-01, 5.25782585e-01,
          9.51756015e-02, 2.51987297e-02, 9.77306217e-02, 3.73108119e-01,
          5.25782585e-01, 7.50370026e-02, 3.63625288e-02, 3.65144819e-01,
          1.35206208e-01, 1.33773657e-02, 5.58901466e-02, 5.03518522e-01,
          5.03518522e-01, 5.03518522e-01, 1.16582073e-01, 2.56657541e-01,
          2.97129720e-01, 2.18773782e-02, 1.36406273e-01, 5.34617543e-01,
          6.66260421e-01, 4.02662158e-02, 2.77169561e-03, 4.09692898e-03,
          3.93207848e-01, 1.94555044e-01, 4.93075609e-01, 4.93075609e-01,
          4.93075609e-01, 9.95176062e-02, 1.39872804e-02, 4.53541368e-01,
          1.07642025e-01, 2.16104202e-02, 3.33343565e-01, 3.09848428e-01,
          3.02652568e-01, 3.82561058e-01, 3.82561058e-01, 3.82561058e-01,
          3.82561058e-01, 3.28152806e-01, 6.60258085e-02, 1.28666321e-02,
          1.65681019e-02, 7.66971754e-03, 1.30895618e-02, 1.37636870e-01,
          5.12966990e-01, 6.13066316e-01, 5.79026878e-01, 2.67565832e-03,
          4.45422716e-02, 5.37400186e-01, 5.37400186e-01, 3.42224479e-01,
          5.37400186e-01, 2.69401707e-02, 6.18798845e-02, 4.37558107e-02,
          5.16271777e-02, 1.03731435e-02, 2.96271238e-02, 5.33795297e-01,
          5.33795297e-01, 5.33795297e-01, 9.67748836e-02, 3.53966683e-01,
          6.46024346e-02, 6.33555278e-03, 2.53946763e-02, 3.29952762e-02,
          8.24078843e-02, 5.49158573e-01, 5.49158573e-01, 5.49158573e-01,
          2.84523547e-01, 1.56929754e-02, 8.13072827e-03, 4.47996845e-03,
          3.38207860e-03, 2.77160737e-03, 1.44422520e-03, 5.73733509e-01,
          5.73733509e-01, 5.73733509e-01, 8.19703639e-02, 3.39275372e-04,
          2.38544331e-03, 3.02644342e-01, 6.39701307e-01, 2.56583840e-01,
          6.39701307e-01, 1.19105607e-01, 5.69755100e-02, 1.74695700e-02,
          2.38544331e-03 ]
      - [ 4.50378418e-01, 4.50378418e-01, 2.84649283e-01, 0., 0., 0.,
          3.21112454e-01, 4.50378418e-01, 4.50378418e-01, 5.70750773e-01,
          5.70750773e-01, 1.95544194e-02, 1.07391113e-02, 5.37192784e-02,
          5.28111681e-02, 9.50903893e-02, 4.26226147e-02, 5.70750773e-01,
          5.50450563e-01, 3.02612837e-02, 0., 5.50992936e-02,
          2.26187885e-01, 5.40660992e-02, 1.65770054e-01, 5.50450563e-01,
          5.50450563e-01, 4.98303086e-01, 4.47383244e-03, 3.53861321e-03,
          1.08045703e-02, 4.06201631e-02, 0., 4.98303086e-01,
          4.98303086e-01, 4.98303086e-01, 3.26188534e-01, 4.10895437e-01,
          4.10895437e-01, 2.05433369e-01, 1.09719425e-01, 1.90267667e-01,
          4.10895437e-01, 4.10895437e-01, 3.51728648e-01, 3.69330287e-01,
          3.69330287e-01, 3.69330287e-01, 3.69330287e-01, 3.69330287e-01,
          1.13858707e-01, 3.69330287e-01, 3.01383972e-01, 2.72185475e-01,
          4.08873469e-01, 2.90106446e-01, 2.43690517e-02, 3.07666361e-01,
          4.08873469e-01, 1.77963644e-01, 3.40764105e-01, 4.08873469e-01,
          4.08873469e-01, 2.39212245e-01, 2.08619907e-02, 5.73315239e-03,
          3.38571906e-01, 2.28544816e-01, 6.48492761e-03, 1.69693664e-01,
          6.08494937e-01, 6.08494937e-01, 2.21914068e-01, 1.41855478e-01,
          4.00595486e-01, 4.00595486e-01, 4.00595486e-01, 2.54451394e-01,
          4.00595486e-01, 2.43926376e-01, 4.00595486e-01, 5.24044707e-02,
          3.77392322e-02, 2.88673162e-01, 5.04903734e-01, 5.04903734e-01,
          2.65849650e-01, 4.34541643e-01, 2.45803222e-01, 2.78706849e-01,
          1.38061345e-01, 4.23780605e-02, 3.36725218e-03, 6.59443855e-01,
          6.59443855e-01, 2.41323829e-01, 1.78074352e-02, 3.76696661e-02,
          2.06984520e-01, 5.35431243e-02, 2.05630483e-03, 1.98103627e-03,
          5.64305723e-01, 5.64305723e-01, 3.91733907e-02, 3.73354778e-02,
          1.82314366e-01, 5.64305723e-01, 0., 2.54184492e-02,
          3.56516302e-01, 6.26353860e-01, 6.26353860e-01, 1.98516980e-01,
          1.82539284e-01, 9.28895473e-02, 0., 0., 3.86620359e-03,
          2.78721265e-02, 8.53745863e-02, 5.55368125e-01, 5.55368125e-01,
          5.55368125e-01, 2.47128010e-01, 0., 0., 0., 0., 5.92083752e-01,
          7.50149190e-01, 2.81070590e-01, 1.50010232e-02, 0., 0., 0., 0.,
          0., 7.04244494e-01, 7.04244494e-01, 3.23964432e-02,
          1.13329676e-04, 0., 0. ]
      - [ 6.82806492e-01, 1.58181973e-02, 9.21906903e-03, 6.92455322e-02,
          9.91539434e-02, 1.79927479e-02, 9.74245593e-02, 1.89623952e-01,
          6.82806492e-01, 6.63397908e-01, 1.75609335e-01, 6.67786226e-02,
          0., 2.74887006e-03, 4.69959760e-03, 4.03393358e-02,
          2.76095420e-01, 6.63397908e-01, 5.64551353e-01, 7.73696825e-02,
          2.14500222e-02, 0., 0., 0., 1.78217620e-01, 5.64551353e-01,
          5.64551353e-01, 6.57385051e-01, 9.78643745e-02, 2.53521092e-02,
          9.88924950e-02, 7.66138658e-02, 0., 5.88825271e-02,
          3.15895677e-01, 6.57385051e-01, 4.70913380e-01, 4.95637693e-02,
          3.87959331e-02, 2.51593113e-01, 3.23658258e-01, 2.04090759e-01,
          4.37910765e-01, 3.82548541e-01, 4.70913380e-01, 3.87599468e-01,
          3.87599468e-01, 1.20790623e-01, 3.98787996e-03, 3.87599468e-01,
          3.87599468e-01, 3.27998728e-01, 3.50387722e-01, 3.87599468e-01,
          3.84224266e-01, 3.02826315e-01, 3.84224266e-01, 3.57049406e-01,
          3.84224266e-01, 1.69449359e-01, 1.00592986e-01, 3.84224266e-01,
          3.84224266e-01, 5.28996944e-01, 1.35990307e-01, 1.61477149e-01,
          7.08080009e-02, 4.34158854e-02, 1.97276560e-04, 3.22081864e-01,
          5.28996944e-01, 5.28996944e-01, 2.32573688e-01, 2.19562519e-02,
          3.57756317e-02, 4.84090477e-01, 4.84090477e-01, 2.40951642e-01,
          4.84090477e-01, 1.76316395e-01, 3.83583814e-01, 1.40279576e-01,
          1.24635389e-02, 3.26093799e-03, 1.21094525e-01, 4.57292706e-01,
          4.57292706e-01, 4.57292706e-01, 3.52785528e-01, 4.57292706e-01,
          3.81821930e-01, 4.07531798e-01, 4.07531798e-01, 4.07531798e-01,
          4.07531798e-01, 1.22925289e-01, 8.62481259e-03, 6.74166009e-02,
          4.07531798e-01, 5.34452461e-02, 3.32933098e-01, 4.07955408e-01,
          1.20011024e-01, 4.07955408e-01, 4.07955408e-01, 4.07955408e-01,
          4.07955408e-01, 1.88899204e-01, 1.79326942e-03, 0., 0.,
          7.01865852e-01, 7.01865852e-01, 7.94966221e-02, 2.67364047e-02,
          2.00595520e-02, 1.79555938e-02, 2.27018148e-02, 0., 0.,
          2.67725170e-01, 8.45579445e-01, 7.64850453e-02, 8.86123534e-03,
          1.16738126e-01, 4.29894209e-01, 1.44246414e-01, 2.35145316e-01,
          1.12319089e-01, 5.11820853e-01, 7.66833127e-01, 3.24978903e-02,
          0., 3.61773111e-02, 2.26433054e-01, 6.88442355e-03,
          4.10371982e-02, 6.18701093e-02, 1.34623840e-01, 6.71562850e-01,
          6.71562850e-01, 2.51564950e-01, 6.58300593e-02, 1.03824260e-03 ]
      - [ 4.28496510e-01, 3.46945345e-01, 8.88519082e-03, 4.28496510e-01,
          4.28496510e-01, 6.13039285e-02, 1.87001564e-02, 3.69762987e-01,
          4.28496510e-01, 6.39640391e-01, 1.51780531e-01, 3.79035319e-03,
          8.72668996e-02, 2.22859681e-01, 2.63620466e-01, 3.18684429e-02,
          1.56490147e-01, 6.39640391e-01, 5.18755078e-01, 9.91531182e-03,
          1.80367846e-03, 1.27804009e-02, 3.91212553e-01, 1.68106541e-01,
          7.69855008e-02, 5.18755078e-01, 5.18755078e-01, 5.39351702e-01,
          1.92520335e-01, 1.26020582e-02, 1.47188962e-01, 5.39351702e-01,
          1.37660936e-01, 3.43002565e-02, 2.07119182e-01, 5.39351702e-01,
          4.04630333e-01, 4.04630333e-01, 4.04630333e-01, 1.75163284e-01,
          1.30155921e-01, 2.95754224e-01, 3.61461341e-01, 4.04630333e-01,
          2.74421871e-01, 3.77198905e-01, 3.77198905e-01, 3.77198905e-01,
          3.23663741e-01, 3.77198905e-01, 3.77198905e-01, 3.77198905e-01,
          5.97747900e-02, 1.85003713e-01, 4.14285660e-01, 2.54316717e-01,
          4.14285660e-01, 1.87608302e-01, 1.52571529e-01, 4.14285660e-01,
          1.20609134e-01, 4.14285660e-01, 4.14285660e-01, 5.18149555e-01,
          1.62803516e-01, 4.69478400e-04, 1.08150244e-02, 4.98988599e-01,
          5.18149555e-01, 6.71732128e-02, 7.31916502e-02, 4.15194273e-01,
          3.45077336e-01, 3.45077336e-01, 3.45077336e-01, 3.45077336e-01,
          3.45077336e-01, 3.45077336e-01, 3.45077336e-01, 2.09583580e-01,
          3.45077336e-01, 1.95779204e-01, 3.60459924e-01, 3.60459924e-01,
          3.38897854e-01, 3.60459924e-01, 3.60459924e-01, 3.60459924e-01,
          2.52248287e-01, 3.60459924e-01, 1.81866243e-01, 3.99321705e-01,
          3.98389041e-01, 2.39841878e-01, 3.99321705e-01, 3.99321705e-01,
          3.99321705e-01, 1.37150630e-01, 3.00093085e-01, 2.76648968e-01,
          6.14418425e-02, 7.28593767e-03, 1.16077550e-02, 2.23617241e-01,
          4.81794655e-01, 4.81794655e-01, 4.81794655e-01, 4.10252720e-01,
          1.50751665e-01, 1.45770118e-01, 8.08116496e-02, 5.89216590e-01,
          5.89216590e-01, 4.60775942e-01, 1.09360062e-01, 4.22081314e-02,
          1.52325392e-01, 4.00293380e-01, 2.92530339e-02, 2.92777997e-02,
          2.85630971e-01, 6.09756887e-01, 5.01405969e-02, 3.37040313e-02,
          5.58748059e-02, 6.09756887e-01, 2.94734299e-01, 1.61540419e-01,
          5.50823733e-02, 5.37012890e-02, 5.22468626e-01, 5.22468626e-01,
          1.92529544e-01, 1.41112298e-01, 5.22468626e-01, 3.73814940e-01,
          2.07863003e-01, 3.73814940e-01, 3.73814940e-01, 3.73814940e-01,
          3.73814940e-01, 3.35172683e-01, 2.32077196e-01, 2.96933949e-01 ]
      - [ 4.41831917e-01, 0., 2.38916148e-02, 1.25779510e-01,
          4.41831917e-01, 4.41831917e-01, 2.28402793e-01, 3.82316232e-01,
          4.41831917e-01, 4.06668633e-01, 0., 1.18458550e-02,
          5.93370460e-02, 4.06668633e-01, 4.06668633e-01, 4.06668633e-01,
          4.06668633e-01, 4.06668633e-01, 3.56161714e-01, 3.56161714e-01,
          3.56161714e-01, 2.40487576e-01, 3.23409349e-01, 3.48333448e-01,
          3.56161714e-01, 2.80038923e-01, 3.56161714e-01, 5.47334611e-01,
          5.47334611e-01, 2.82681376e-01, 2.91628599e-01, 3.91638160e-01,
          4.66646738e-02, 8.32898542e-03, 6.86987787e-02, 2.64727861e-01,
          5.18188894e-01, 8.15518796e-02, 3.64030153e-02, 1.91127677e-02,
          4.60065067e-01, 4.04060334e-01, 3.79686728e-02, 2.70329237e-01,
          5.18188894e-01, 1.54245242e-01, 0., 3.35701406e-02,
          6.81590661e-02, 3.57825279e-01, 4.06239510e-01, 1.40985310e-01,
          5.70871651e-01, 5.70871651e-01, 4.06904429e-01, 3.00389647e-01,
          4.06904429e-01, 4.06904429e-01, 4.06904429e-01, 2.52413452e-01,
          9.28109810e-02, 7.42878243e-02, 4.06904429e-01, 1.32517055e-01,
          4.92839098e-01, 4.92839098e-01, 4.92839098e-01, 4.92839098e-01,
          7.09083900e-02, 0., 2.42875563e-03, 3.03563904e-02,
          4.72517967e-01, 1.56801552e-01, 9.34698433e-02, 4.72517967e-01,
          4.72517967e-01, 1.03152469e-02, 1.33939716e-03, 2.62213320e-01,
          4.72517967e-01, 5.58737554e-02, 0., 0., 4.38757718e-01,
          5.21646202e-01, 1.06239868e-02, 8.66488379e-04, 5.04793942e-01,
          5.21646202e-01, 5.58875859e-01, 5.11452416e-03, 4.85398201e-03,
          2.38413721e-01, 5.58875859e-01, 2.63341353e-03, 7.74366374e-04,
          2.22262926e-02, 5.58875859e-01, 5.29514611e-01, 9.04464573e-02,
          3.34707350e-01, 1.18231557e-01, 5.29514611e-01, 4.86894175e-02,
          1.26778051e-01, 3.03826369e-02, 5.29514611e-01, 0., 0., 0.,
          7.02455103e-01, 7.02455103e-01, 7.74669126e-02, 4.52089822e-03,
          1.96296256e-03, 8.71826522e-03, 4.99665504e-03, 0., 0.,
          6.88570678e-01, 6.88570678e-01, 5.70465699e-02, 0.,
          1.82205439e-02, 2.03115433e-01, 1.23854175e-01, 0., 0.,
          6.30233705e-01, 6.30233705e-01, 2.42476686e-04, 0.,
          1.39634847e-03, 4.28924888e-01, 2.69791782e-01, 0., 0.,
          2.51616985e-01, 7.71832466e-01, 2.20250860e-01, 1.54945403e-01,
          1.17609864e-02, 4.33377028e-01 ]
      - [ 4.33973759e-01, 4.33973759e-01, 4.33973759e-01, 4.33973759e-01,
          4.33973759e-01, 4.51370440e-02, 3.95681564e-04, 2.44063810e-02,
          2.26639926e-01, 3.67121220e-01, 3.67121220e-01, 3.24095815e-01,
          3.67121220e-01, 3.67121220e-01, 3.67121220e-01, 2.37707302e-01,
          1.61620989e-01, 3.67121220e-01, 4.81438607e-01, 2.61997934e-02,
          1.01608469e-03, 1.29686901e-02, 2.00196058e-01, 4.22596127e-01,
          2.84883231e-01, 4.80567455e-01, 4.81438607e-01, 1.57503858e-01,
          1.22931441e-02, 8.87013134e-03, 1.33128744e-02, 3.73580046e-02,
          1.75970510e-01, 5.58821380e-01, 5.58821380e-01, 5.58821380e-01,
          5.10088146e-01, 5.10088146e-01, 5.10088146e-01, 8.14632922e-02,
          0., 4.69766147e-02, 7.44342431e-02, 1.61268488e-01,
          4.17067140e-01, 4.11939114e-01, 4.11939114e-01, 8.08229074e-02,
          5.48638776e-02, 3.78353417e-01, 4.11939114e-01, 3.95050973e-01,
          9.13816169e-02, 4.11939114e-01, 3.88574213e-01, 4.13536020e-02,
          3.88574213e-01, 3.88574213e-01, 3.88574213e-01, 2.70668924e-01,
          1.23315804e-01, 3.88574213e-01, 3.88574213e-01, 1.66852195e-02,
          4.01327247e-03, 1.67390779e-01, 1.22933425e-01, 4.21745097e-03,
          0., 5.72953403e-01, 5.72953403e-01, 5.42478442e-01,
          2.09795572e-02, 1.66849941e-01, 6.94013059e-01, 4.77028936e-01,
          1.46603957e-01, 2.52489120e-01, 4.11970705e-01, 1.68532263e-02,
          1.82990804e-02, 2.47004002e-01, 2.25082755e-01, 4.03114051e-01,
          4.03114051e-01, 4.03114051e-01, 4.03114051e-01, 4.03114051e-01,
          8.51676390e-02, 2.54050285e-01, 1.11230418e-01, 2.27566928e-01,
          3.68941754e-01, 3.68941754e-01, 3.68941754e-01, 3.68941754e-01,
          3.68941754e-01, 3.46019953e-01, 3.63091111e-01, 0.,
          8.83953273e-02, 5.27496874e-01, 6.27281368e-02, 4.26064320e-02,
          3.45201582e-01, 5.40191054e-01, 5.40191054e-01, 3.45789222e-03,
          4.74777335e-04, 9.50126499e-02, 5.39670229e-01, 5.39670229e-01,
          5.39670229e-01, 3.04930121e-01, 1.37363240e-01, 0., 0.,
          2.03475282e-02, 4.11225483e-02, 4.34309214e-01, 4.34309214e-01,
          4.34309214e-01, 4.34309214e-01, 4.34309214e-01, 2.21938953e-01,
          3.43110152e-02, 1.19110249e-01, 2.34888360e-01, 4.36149687e-01,
          4.36149687e-01, 4.36149687e-01, 4.36149687e-01, 2.95829207e-01,
          1.02093674e-01, 2.59690553e-01, 3.85120930e-03, 4.78087589e-02,
          2.75576234e-01, 1.26122773e-01, 5.35816610e-01, 5.35816610e-01,
          5.35816610e-01, 1.77536562e-01, 8.76456648e-02 ]
      - [ 6.89784706e-01, 6.89784706e-01, 1.47915989e-01, 3.86754959e-03,
          1.19159399e-02, 0., 2.17235945e-02, 2.97355521e-02,
          1.34595990e-01, 5.55511475e-01, 5.55511475e-01, 2.43636244e-03,
          0., 0., 4.70869569e-03, 1.96456239e-01, 1.73350796e-01,
          5.55511475e-01, 4.74293768e-01, 2.74398029e-02, 2.32351449e-04,
          4.96796966e-02, 1.52995944e-01, 2.62327522e-01, 4.74293768e-01,
          4.74293768e-01, 4.74293768e-01, 5.53727269e-01, 9.24616959e-03,
          2.98172352e-04, 5.18195219e-02, 2.90299356e-01, 3.78043473e-01,
          1.53073207e-01, 3.57560933e-01, 5.53727269e-01, 7.00174451e-01,
          7.00174451e-01, 7.24534243e-02, 3.37620638e-02, 4.53010276e-02,
          2.94293948e-02, 4.69607003e-02, 2.03761961e-02, 2.43711211e-02,
          4.62304115e-01, 4.21770185e-01, 6.09224886e-02, 6.47494942e-02,
          6.90547079e-02, 1.84090752e-02, 4.62304115e-01, 4.62304115e-01,
          4.04110521e-01, 1.20020799e-01, 1.12229232e-02, 1.33304344e-02,
          1.03562362e-01, 1.04176879e-01, 1.74603805e-01, 5.56079686e-01,
          5.56079686e-01, 5.56079686e-01, 3.24056625e-01, 6.69802949e-02,
          8.74791741e-02, 3.48156750e-01, 3.89293283e-01, 3.89293283e-01,
          3.89293283e-01, 3.89293283e-01, 3.89293283e-01, 3.28837991e-01,
          4.55611467e-01, 4.55611467e-01, 4.55611467e-01, 4.55611467e-01,
          1.32666454e-01, 1.36783808e-01, 1.25542015e-01, 7.01170415e-02,
          1.44429862e-01, 1.50080487e-01, 1.74115345e-01, 2.20860109e-01,
          5.62675893e-01, 3.92192245e-01, 2.02043399e-01, 5.62675893e-01,
          2.09897727e-01, 2.50462800e-01, 9.10781906e-04, 2.51314673e-03,
          4.17283773e-01, 5.00113428e-01, 3.04706059e-02, 8.28972980e-02,
          5.00113428e-01, 5.00113428e-01, 1.36113048e-01, 4.47342917e-03,
          1.67744560e-03, 2.23402947e-01, 2.30026901e-01, 9.70604196e-02,
          2.26688221e-01, 6.36969984e-01, 6.36969984e-01, 3.83658381e-03,
          4.18233685e-04, 1.57464743e-01, 6.92685783e-01, 6.92685783e-01,
          9.28947404e-02, 1.75038399e-03, 2.49397795e-04, 3.93420085e-03,
          4.26441850e-03, 1.32688123e-03, 6.31570991e-04, 1.20760374e-01,
          8.61380577e-01, 4.84565288e-01, 1.33678084e-04, 2.73826811e-03,
          3.70591925e-03, 1.23558259e-02, 0., 1.52309600e-04,
          6.84564292e-01, 6.84564292e-01, 2.18777850e-01, 0.,
          6.63619069e-03, 8.85951072e-02, 3.69197153e-03, 0.,
          3.66287532e-05, 5.47118843e-01, 5.47118843e-01, 5.19649446e-01,
          1.82103127e-01, 2.04408795e-01, 2.25531757e-01 ]
      - [ 5.41571617e-01, 5.41571617e-01, 2.36677602e-01, 0.,
          3.05999047e-03, 0., 1.58480629e-02, 2.41692767e-01,
          5.41571617e-01, 6.74574554e-01, 2.86961347e-01, 2.82753818e-02,
          0., 0., 0., 0., 4.20631003e-03, 6.74574554e-01, 7.04611540e-01,
          4.14516049e-04, 0., 0., 0., 0., 0., 3.35985865e-03,
          7.04611540e-01, 7.04615593e-01, 0., 0., 0., 0., 0., 0., 0.,
          7.04615593e-01, 4.06054765e-01, 5.45566201e-01, 5.45566201e-01,
          4.66297865e-02, 8.57076570e-02, 1.13446586e-01, 1.41612217e-01,
          3.37078035e-01, 2.79857844e-01, 4.36003178e-01, 4.36003178e-01,
          4.36003178e-01, 3.43364269e-01, 3.00094515e-01, 1.62798151e-01,
          2.31118780e-02, 1.60118286e-02, 4.36003178e-01, 4.99621093e-01,
          3.22036119e-03, 3.03874966e-02, 6.42125607e-02, 5.00286222e-01,
          4.22446877e-01, 9.32899192e-02, 1.41902110e-02, 5.49709260e-01,
          5.67243159e-01, 0., 0., 1.43666923e-01, 5.67243159e-01,
          9.16033238e-02, 3.15347826e-03, 0., 5.67243159e-01,
          4.61574383e-02, 4.02927905e-01, 4.65775162e-01, 4.65775162e-01,
          4.65775162e-01, 4.07559603e-01, 1.16484888e-01, 1.40541811e-02,
          1.24793770e-02, 4.83711861e-04, 2.05784902e-01, 4.86680269e-01,
          4.86680269e-01, 4.86680269e-01, 4.74632531e-01, 1.30159676e-01,
          1.04138169e-04, 9.00378975e-04, 5.19237155e-03, 2.92887557e-02,
          1.37529761e-01, 1.45420134e-01, 5.63559771e-01, 5.63559771e-01,
          5.63559771e-01, 4.93277854e-04, 2.50440594e-02, 3.60843018e-02,
          0., 0., 2.74669081e-01, 7.08488047e-01, 6.30876958e-01,
          9.41083357e-02, 0., 8.58202800e-02, 2.08600480e-02, 0.,
          2.82162517e-01, 6.58928335e-01, 6.58928335e-01, 2.10001007e-01,
          2.98012421e-02, 0., 3.02544283e-03, 0., 2.30223145e-02,
          8.51863027e-02, 6.71950161e-01, 7.21006751e-01, 1.15515307e-01,
          1.74514931e-02, 0., 0., 0., 5.43602044e-03, 1.48579394e-02,
          8.80390406e-02, 6.76852703e-01, 6.76852703e-01, 2.62645066e-01,
          0., 0., 0., 0., 0., 1.69689413e-02, 7.67862260e-01,
          6.30824685e-01, 6.70532286e-02, 0., 0. ]
      - [ 6.49167717e-01, 3.75388980e-01, 7.74579272e-02, 0., 0., 0., 0.,
          6.13589361e-02, 6.49167717e-01, 6.55735791e-01, 8.49214150e-04,
          1.91992833e-04, 0., 0., 0., 0., 2.66357720e-01, 7.01470613e-01,
          7.03278720e-01, 6.03189133e-02, 0., 0., 0., 0., 0.,
          1.18081225e-02, 7.03278720e-01, 7.04163551e-01, 3.57516110e-02,
          0., 0., 0., 0., 0., 0., 7.04163551e-01, 4.56636906e-01,
          3.23030412e-01, 2.30483562e-01, 4.56636906e-01, 4.56636906e-01,
          6.31164876e-04, 1.10978691e-03, 6.24250062e-02, 4.56636906e-01,
          1.98981792e-01, 1.78060948e-03, 1.04858978e-02, 5.50971687e-01,
          5.50971687e-01, 5.30916477e-05, 3.96887161e-04, 2.09955931e-01,
          5.50971687e-01, 5.93841732e-01, 5.67982206e-03, 7.54247466e-03,
          1.78250566e-01, 5.05635500e-01, 3.37607563e-02, 0.,
          1.02379527e-02, 5.93841732e-01, 5.61026990e-01, 1.17854252e-02,
          0., 4.35950756e-02, 5.43176115e-01, 1.39912814e-01,
          5.87630570e-02, 2.11628616e-01, 5.61026990e-01, 1.33731350e-01,
          2.91542858e-02, 7.37644583e-02, 5.64422369e-01, 5.64422369e-01,
          5.21749079e-01, 2.08114445e-01, 9.26424116e-02, 9.44826007e-02,
          2.13665925e-02, 1.40458345e-01, 5.68986356e-01, 5.68986356e-01,
          5.68986356e-01, 6.35496387e-03, 4.49292747e-05, 1.15938054e-03,
          5.34317754e-02, 1.40653610e-01, 8.76812488e-02, 1.17831729e-01,
          5.21741688e-01, 5.21741688e-01, 5.21741688e-01, 3.09053540e-01,
          1.67580411e-01, 1.14861719e-01, 4.28636521e-02, 0., 0.,
          4.32073265e-01, 6.02406442e-01, 6.02406442e-01, 1.80090502e-01,
          7.61333182e-02, 2.03579277e-01, 9.28302296e-03, 4.37493715e-03,
          1.24816269e-01, 2.00837448e-01, 6.70706630e-01, 6.70706630e-01,
          1.93819731e-01, 0., 4.82281717e-03, 5.31099644e-03,
          5.32099791e-02, 5.55784345e-01, 5.84122837e-01, 5.84122837e-01,
          3.55427293e-03, 0., 0., 0., 1.50888059e-02, 2.35771369e-02,
          3.59398648e-02, 2.88807809e-01, 7.53451109e-01, 5.63127518e-01,
          1.42008498e-01, 4.50217761e-02, 0., 0., 0., 0., 3.62130970e-01,
          7.63196051e-01, 5.13616920e-01, 1.22129031e-01, 7.60426885e-03,
          0. ]
      - [ 5.05512595e-01, 1.30363792e-01, 1.56779632e-01, 5.05512595e-01,
          4.31456149e-01, 0., 0., 2.43598185e-02, 5.05512595e-01,
          3.30029905e-01, 1.75995519e-03, 2.98147206e-03, 1.60078302e-01,
          3.09910417e-01, 0., 0., 4.58477944e-01, 7.42820501e-01,
          6.98905230e-01, 3.40319774e-03, 0., 3.36967185e-02,
          7.81906918e-02, 0., 3.05532012e-04, 9.39437076e-02,
          6.98905230e-01, 7.03400850e-01, 3.05447029e-03, 0.,
          3.75211192e-03, 1.76763732e-03, 0., 5.61947422e-03,
          5.80934323e-02, 7.03400850e-01, 1.93484694e-01, 1.88387521e-02,
          7.35134333e-02, 6.50395095e-01, 6.50395095e-01, 9.66928154e-02,
          0., 1.13322251e-01, 2.86517471e-01, 7.36499727e-02,
          5.26486710e-03, 1.05688674e-02, 5.72716475e-01, 5.72716475e-01,
          2.71479972e-02, 4.98361827e-04, 6.29878491e-02, 5.72716475e-01,
          2.65374511e-01, 3.91886628e-04, 7.21040240e-04, 5.54715276e-01,
          5.54715276e-01, 1.98043250e-02, 3.02032451e-03, 2.25361902e-02,
          5.54715276e-01, 5.12020707e-01, 0., 2.29347526e-04,
          4.01940644e-01, 5.12020707e-01, 1.97022781e-01, 1.40643446e-02,
          8.84242803e-02, 5.12020707e-01, 6.06826067e-01, 4.45073813e-01,
          4.83830310e-02, 5.33718728e-02, 1.58061460e-01, 7.46367797e-02,
          0., 1.53723896e-01, 6.06826067e-01, 5.20191908e-01,
          2.27857400e-02, 1.63507238e-02, 2.26711646e-01, 3.49333048e-01,
          5.61547130e-02, 7.50622302e-02, 5.20191908e-01, 5.20191908e-01,
          6.18166029e-02, 1.99644850e-03, 1.64971221e-03, 2.33779043e-01,
          4.87475455e-01, 7.10771009e-02, 4.67655391e-01, 4.87475455e-01,
          4.87475455e-01, 9.22656581e-02, 5.97296171e-02, 3.51874679e-01,
          6.45768702e-01, 6.45768702e-01, 1.33648574e-01, 3.21217291e-02,
          5.72449453e-02, 3.80944498e-02, 5.83150685e-01, 2.67240912e-01,
          1.26630872e-01, 3.15115124e-01, 5.83150685e-01, 3.56255949e-01,
          0., 0., 1.94554292e-02, 1.83670893e-01, 6.93226373e-03,
          4.15943004e-03, 4.58619565e-01, 6.06086135e-01, 4.31446373e-01,
          1.99414551e-01, 3.31678510e-01, 2.15761408e-01, 4.18320037e-02,
          1.21421670e-03, 0., 3.35363708e-02, 4.91744369e-01,
          4.91744369e-01, 4.91744369e-01, 4.91744369e-01, 1.57995120e-01,
          4.14534301e-01, 1.77833870e-01, 2.79822379e-01, 1.62009731e-01,
          4.14534301e-01, 4.14534301e-01, 3.40192884e-01, 2.37908483e-01,
          4.14534301e-01 ]
      - [ 5.07261932e-01, 4.33927566e-01, 5.07261932e-01, 7.81646445e-02,
          1.35181928e-02, 3.32423039e-02, 1.56355232e-01, 5.34051433e-02,
          5.07261932e-01, 6.87108099e-01, 2.64195167e-02, 9.72734317e-02,
          4.49166587e-03, 0., 2.50147860e-02, 1.06617279e-01,
          1.63500413e-01, 6.87108099e-01, 8.10376108e-01, 6.30540252e-02,
          0., 0., 0., 0., 2.32596556e-03, 1.27929626e-02, 5.75376689e-01,
          6.84785664e-01, 1.29967466e-01, 0., 0., 2.24777702e-02,
          1.81888387e-01, 0., 6.94335550e-02, 6.84785664e-01,
          4.77361202e-01, 4.77361202e-01, 4.77361202e-01, 4.77361202e-01,
          2.00145915e-01, 1.20672025e-02, 3.31698768e-02, 2.71601826e-02,
          2.04194546e-01, 5.64822078e-01, 2.65552521e-01, 4.92593907e-02,
          3.98952544e-01, 5.25742948e-01, 1.55602756e-03, 6.63205422e-03,
          8.27927794e-03, 4.08298403e-01, 7.05213904e-01, 1.19208649e-01,
          0., 2.37562373e-01, 3.96661520e-01, 1.57368526e-01,
          3.40379357e-01, 1.53083071e-01, 3.21852952e-01, 4.72829968e-01,
          1.13757327e-01, 0., 8.61975830e-03, 3.09038967e-01,
          4.72829968e-01, 3.18659961e-01, 3.38390976e-01, 4.72829968e-01,
          2.45119929e-01, 4.80339587e-01, 4.80339587e-01, 4.80339587e-01,
          4.80339587e-01, 6.33359775e-02, 7.08250403e-02, 2.10160259e-02,
          5.23921177e-02, 4.86643791e-01, 1.24425985e-01, 2.56673455e-01,
          5.80796361e-01, 5.80796361e-01, 1.37817208e-02, 1.34100337e-02,
          1.69378443e-04, 3.15696150e-02, 2.31517673e-01, 1.24869198e-02,
          4.71605733e-02, 6.18877828e-01, 6.18877828e-01, 2.78100669e-01,
          2.61217475e-01, 1.44273221e-01, 7.36991018e-02, 5.38502932e-02,
          0., 0., 4.71417636e-01, 4.71417636e-01, 2.99248517e-01,
          1.17913924e-01, 4.71417636e-01, 4.71417636e-01, 1.00648412e-02,
          6.09342428e-03, 4.54531938e-01, 2.14812100e-01, 7.13711441e-01,
          2.54860103e-01, 3.93118948e-01, 4.94948104e-02, 9.30804834e-02,
          0., 1.22916557e-01, 6.70031965e-01, 2.63775170e-01,
          6.70031965e-01, 7.29926378e-02, 7.35573322e-02, 9.34574229e-04,
          0., 0., 1.05292359e-02, 1.26516417e-01, 6.03059232e-01,
          6.03059232e-01, 4.70457345e-01, 1.70793205e-01, 0., 0.,
          6.05471479e-03, 0., 0., 6.99925244e-01, 6.99925244e-01,
          9.20587406e-02, 1.76769518e-03, 6.44428656e-02, 2.35578194e-02 ]
      - [ 5.58011651e-01, 5.58011651e-01, 6.58838451e-02, 0.,
          3.47394980e-02, 2.81867962e-02, 4.53358591e-02, 2.27814451e-01,
          5.58011651e-01, 5.19492447e-01, 5.19492447e-01, 4.15888786e-01,
          4.95517254e-03, 0., 0., 5.35659008e-02, 9.66294259e-02,
          5.19492447e-01, 5.84533393e-01, 3.50327849e-01, 4.21533808e-02,
          2.57380563e-03, 0., 0., 1.55296162e-01, 4.02709037e-01,
          5.84533393e-01, 6.35127664e-01, 3.20303500e-01, 0., 0.,
          6.41323179e-02, 2.57470280e-01, 3.55774611e-02, 1.12341024e-01,
          6.35127664e-01, 4.44753468e-01, 4.44753468e-01, 4.44753468e-01,
          4.44753468e-01, 3.39931756e-01, 2.28856076e-02, 5.29094674e-02,
          2.80091278e-02, 2.90987164e-01, 5.46375811e-01, 2.70091474e-01,
          1.38533041e-01, 1.40188813e-01, 5.46375811e-01, 2.09310368e-01,
          1.59250442e-02, 4.75308765e-03, 4.91538316e-01, 5.23163199e-01,
          2.64362633e-01, 5.38644083e-02, 3.92939001e-01, 4.96828407e-01,
          4.33575869e-01, 4.42046747e-02, 5.37072867e-02, 2.32852951e-01,
          4.42879498e-01, 2.24802747e-01, 2.06454750e-02, 7.37250820e-02,
          3.12014818e-01, 4.42879498e-01, 2.39282399e-01, 4.42879498e-01,
          4.42879498e-01, 1.78987041e-01, 4.54955488e-01, 4.94872242e-01,
          4.94872242e-01, 4.94872242e-01, 1.17052697e-01, 8.26367959e-02,
          1.69255566e-02, 2.28982382e-02, 2.37715229e-01, 1.11298978e-01,
          8.70309621e-02, 5.76386273e-01, 6.80505455e-01, 3.44606519e-01,
          2.46037357e-02, 0., 4.54804152e-02, 1.24734111e-01,
          2.35624369e-02, 1.76502913e-01, 6.73912883e-01, 6.73912883e-01,
          1.84010953e-01, 1.25237321e-02, 8.03168677e-03, 6.00553490e-02,
          9.55661312e-02, 3.74848605e-03, 6.20296448e-02, 5.35773695e-01,
          5.35773695e-01, 9.20229480e-02, 6.97735846e-02, 3.27349931e-01,
          5.35773695e-01, 0., 0., 5.46565764e-02, 6.73384786e-01,
          6.73384786e-01, 2.88668156e-01, 8.17159750e-03, 0., 0., 0., 0.,
          3.33093219e-02, 5.83501935e-01, 5.87308407e-01, 5.48212051e-01,
          8.41656998e-02, 0., 0., 0., 0., 4.37711217e-02, 7.03184962e-01,
          7.03184962e-01, 4.59194817e-02, 4.23753867e-03, 0., 0.,
          4.05419106e-03, 0., 0., 7.04553068e-01, 7.04553068e-01, 0.,
          7.76572991e-03, 9.14756861e-03, 4.05419106e-03 ]
      - [ 6.76119804e-01, 2.79615223e-01, 7.25782104e-03, 1.09407678e-02,
          4.82452381e-03, 0., 1.11835552e-02, 2.16535050e-02,
          6.76119804e-01, 7.04108536e-01, 8.38880055e-03, 2.65267678e-03,
          1.79188116e-03, 0., 1.16905309e-02, 3.46538797e-02,
          3.96198779e-03, 7.04108536e-01, 6.60945594e-01, 3.44815761e-01,
          1.47760976e-02, 0., 0., 4.73563420e-03, 2.32501682e-02,
          4.92114993e-03, 6.60945594e-01, 6.30924165e-01, 6.30924165e-01,
          3.75580490e-02, 4.44883108e-02, 4.46727732e-03, 5.36594400e-03,
          2.88253073e-02, 6.23007258e-03, 4.39615488e-01, 5.44258714e-01,
          3.32559198e-01, 2.44392917e-01, 3.55240643e-01, 5.44258714e-01,
          2.21886635e-01, 2.98954808e-04, 9.96515955e-05, 2.37437680e-01,
          5.39059341e-01, 3.32415774e-02, 8.46695378e-02, 3.36384565e-01,
          5.39059341e-01, 3.78484204e-02, 9.34067764e-04, 9.32343610e-05,
          5.39059341e-01, 4.03857291e-01, 3.92430127e-01, 4.03857291e-01,
          4.03857291e-01, 4.03857291e-01, 9.91132855e-02, 1.01026379e-01,
          8.01933110e-02, 4.03857291e-01, 4.05509144e-01, 4.05509144e-01,
          4.05509144e-01, 4.05509144e-01, 9.53274146e-02, 2.32356697e-01,
          2.41725132e-01, 2.28588521e-01, 4.05509144e-01, 1.02419397e-02,
          1.87501777e-02, 1.30457684e-01, 3.94679070e-01, 8.62086773e-01,
          2.73584008e-01, 1.90453848e-03, 0., 1.02419397e-02,
          1.72076665e-03, 5.05702436e-01, 5.05702436e-01, 4.76130247e-01,
          5.05702436e-01, 3.22263576e-02, 2.38219320e-04, 0.,
          1.72076665e-03, 8.86206776e-02, 5.29356599e-01, 5.29356599e-01,
          5.29356599e-01, 3.52416992e-01, 1.68497469e-02, 1.41236912e-02,
          7.24696442e-02, 1.27560064e-01, 4.08056557e-01, 2.90335625e-01,
          1.49539933e-01, 1.19069755e-01, 4.08056557e-01, 4.08056557e-01,
          4.08056557e-01, 2.06248209e-01, 4.08056557e-01, 6.14963509e-02,
          4.56227809e-01, 5.73867679e-01, 3.36581707e-01, 5.73867679e-01,
          8.05901140e-02, 1.14877345e-02, 0., 6.14963509e-02,
          6.54477335e-04, 2.40378082e-01, 6.03778660e-01, 6.03778660e-01,
          4.55072641e-01, 6.35619333e-04, 9.06044806e-05, 0.,
          6.54477335e-04, 9.39257210e-04, 3.71619016e-02, 5.75038970e-01,
          5.75038970e-01, 5.75038970e-01, 2.92638093e-02, 2.23395578e-03,
          1.49816810e-03, 1.73717667e-03, 2.88156536e-03, 5.99013525e-04,
          1.24607282e-02, 1.70222431e-01, 6.84943855e-01, 6.84943855e-01,
          1.60067365e-01, 2.61121849e-03, 9.90171079e-03 ]
      - [ 6.71373546e-01, 2.96123713e-01, 1.75457485e-02, 5.16532781e-03,
          0., 0., 6.73768157e-03, 6.11855872e-02, 6.71373546e-01,
          7.01363981e-01, 8.99711251e-02, 1.65327284e-02, 4.86710342e-03,
          0., 0., 1.67219655e-03, 2.79522724e-02, 7.01363981e-01,
          7.03852296e-01, 2.64484175e-02, 0., 0., 0., 0., 7.98861496e-03,
          3.73434201e-02, 7.03852296e-01, 5.99671543e-01, 9.77949426e-03,
          0., 0., 0., 2.92228777e-02, 4.84406203e-01, 1.97993726e-01,
          5.99671543e-01, 3.95102471e-01, 3.95102471e-01, 3.17232579e-01,
          2.66137630e-01, 2.17608705e-01, 3.95102471e-01, 3.95102471e-01,
          8.84145796e-02, 3.80779058e-01, 4.19664770e-01, 4.19664770e-01,
          4.19664770e-01, 4.08468932e-01, 1.16026446e-01, 2.93708801e-01,
          1.52516887e-01, 3.87091599e-02, 4.19664770e-01, 5.66163242e-01,
          6.18286617e-02, 7.61096328e-02, 6.13046624e-03, 6.48651123e-02,
          5.66163242e-01, 1.30020633e-01, 4.42493856e-02, 5.66163242e-01,
          4.40161556e-01, 1.20034395e-02, 3.36436991e-04, 1.13329466e-03,
          4.40161556e-01, 4.40161556e-01, 4.40161556e-01, 1.63544372e-01,
          4.40161556e-01, 2.22586878e-02, 3.93710017e-01, 4.09829855e-01,
          4.09829855e-01, 4.09829855e-01, 4.09829855e-01, 4.09829855e-01,
          2.30466295e-02, 8.31383280e-03, 2.14968901e-03, 4.54524845e-01,
          4.54524845e-01, 3.99391890e-01, 4.54524845e-01, 4.54524845e-01,
          9.75798294e-02, 3.01026087e-03, 6.27278909e-03, 9.95129347e-03,
          2.38186903e-02, 6.48635253e-02, 1.07421735e-02, 5.73099256e-01,
          7.73565769e-01, 2.42989004e-01, 3.76361539e-04, 3.74131501e-02,
          1.25399500e-03, 1.92186260e-03, 4.92559411e-02, 3.51166688e-02,
          6.89822018e-01, 6.89822018e-01, 1.55825704e-01, 6.55334070e-02,
          9.57296416e-02, 0., 1.20107951e-02, 5.74421942e-01,
          5.74421942e-01, 5.74421942e-01, 6.51007369e-02, 0., 0., 0., 0.,
          9.91358887e-04, 2.10354403e-01, 3.63279432e-01, 6.54727161e-01,
          6.23356998e-01, 0., 0., 0., 0., 0., 2.75375298e-03,
          2.93555688e-02, 7.04123795e-01, 7.04123795e-01, 2.28201170e-02,
          6.30019407e-04, 0., 0., 0., 1.04749568e-01, 2.23729253e-01,
          6.33975446e-01, 6.33975446e-01, 3.26496452e-01, 1.48974687e-01,
          0. ]
      - [ 4.77200806e-01, 4.77200806e-01, 4.77200806e-01, 9.32186246e-02,
          0., 0., 5.00615761e-02, 2.70472467e-01, 4.77200806e-01,
          5.53719640e-01, 2.51344293e-01, 1.04104444e-01, 2.53475662e-02,
          0., 0., 0., 5.53719640e-01, 5.53719640e-01, 6.33972406e-01,
          3.70478220e-02, 6.10705791e-03, 7.32371677e-03, 0., 0.,
          9.46988817e-03, 4.33906794e-01, 6.33972406e-01, 4.33852166e-01,
          4.33852166e-01, 4.33852166e-01, 5.08535169e-02, 4.33852166e-01,
          1.93898343e-02, 5.27047850e-02, 2.20880032e-01, 4.33852166e-01,
          3.65703166e-01, 4.31022882e-01, 4.31022882e-01, 3.47663999e-01,
          1.61448494e-02, 3.04644525e-01, 4.31022882e-01, 2.09109068e-01,
          2.16674134e-01, 4.39900130e-01, 4.39900130e-01, 4.39900130e-01,
          2.00817242e-01, 5.10002263e-02, 2.93728188e-02, 9.83533543e-03,
          4.21508312e-01, 4.39900130e-01, 5.19218147e-01, 4.15802076e-02,
          7.97598362e-02, 7.39429966e-02, 2.92471517e-02, 1.24950707e-02,
          5.41979149e-02, 5.94545603e-01, 5.94545603e-01, 3.63491207e-01,
          4.09404375e-02, 8.52424875e-02, 3.28635089e-02, 1.37879625e-01,
          1.87351555e-02, 1.45582274e-01, 6.36764526e-01, 6.36764526e-01,
          7.33538577e-03, 4.22949940e-01, 4.22949940e-01, 4.22949940e-01,
          4.22949940e-01, 2.68746793e-01, 4.22949940e-01, 1.70462087e-01,
          2.39774655e-03, 6.14513457e-02, 2.96621621e-01, 4.89381760e-01,
          5.65643251e-01, 5.65643251e-01, 1.73224043e-02, 1.33063635e-02,
          1.48624822e-01, 2.50080954e-02, 5.89700490e-02, 3.81303430e-02,
          8.91611874e-02, 3.13810647e-01, 6.39856994e-01, 6.05599731e-02,
          2.87302695e-02, 6.06216848e-01, 3.17560524e-01, 2.14556500e-01,
          0., 2.57109496e-05, 5.21650970e-01, 5.21650970e-01,
          2.35831155e-03, 9.58245248e-03, 3.63729894e-01, 5.21650970e-01,
          0., 0., 1.71828419e-01, 5.25353849e-01, 5.25353849e-01,
          4.68628734e-01, 4.37502950e-01, 4.70461585e-02, 0., 0., 0.,
          2.95129176e-02, 7.04200566e-01, 7.04200566e-01, 1.67972092e-02,
          4.50686691e-03, 6.14466699e-05, 0., 0., 0., 0., 3.88496429e-01,
          9.14069355e-01, 6.65414184e-02, 0., 0., 0., 1.09285712e-02, 0.,
          0., 7.01596022e-01, 7.01596022e-01, 1.82465382e-03, 0.,
          1.15023172e-02, 9.09249336e-02 ]
      - [ 4.41124588e-01, 4.41124588e-01, 4.41124588e-01, 4.41124588e-01,
          5.61123118e-02, 0., 1.02434531e-02, 1.39232367e-01,
          4.41124588e-01, 4.85413283e-01, 1.18538678e-01, 1.72626734e-01,
          3.47429395e-01, 1.50714278e-01, 2.38519739e-02, 2.62844432e-02,
          5.34091294e-01, 5.34091294e-01, 4.51814413e-01, 4.51814413e-01,
          4.51814413e-01, 1.62586514e-02, 6.30089408e-03, 2.46589296e-02,
          1.03013813e-01, 4.09167349e-01, 4.51814413e-01, 1.17649697e-02,
          2.82862246e-01, 4.50189829e-01, 2.46324623e-03, 9.22734558e-04,
          3.13418180e-01, 5.53809106e-01, 5.53809106e-01, 1.54546543e-03,
          1.45001665e-01, 3.57707620e-01, 4.14602757e-01, 4.14602757e-01,
          4.14602757e-01, 1.33236021e-01, 4.14602757e-01, 3.26283008e-01,
          1.87307119e-01, 1.01364627e-01, 2.14137174e-02, 3.05289388e-01,
          5.95964134e-01, 5.95964134e-01, 7.10979924e-02, 6.77829087e-02,
          3.11323732e-01, 2.70547450e-01, 3.93662363e-01, 3.93662363e-01,
          1.91091254e-01, 3.93662363e-01, 3.93662363e-01, 3.93662363e-01,
          7.63756931e-02, 1.54589742e-01, 3.93662363e-01, 3.01436391e-02,
          8.67397115e-02, 4.79492396e-02, 4.70014988e-03, 3.47223163e-01,
          6.53009474e-01, 6.53009474e-01, 9.61280540e-02, 8.92662723e-03,
          3.21848243e-01, 3.85914445e-01, 3.85914445e-01, 1.71581551e-01,
          4.86017503e-02, 3.85914445e-01, 3.85914445e-01, 3.85914445e-01,
          3.40743423e-01, 1.87122449e-01, 4.07128155e-01, 4.07128155e-01,
          4.07128155e-01, 2.60767132e-01, 4.07128155e-01, 3.77294451e-01,
          2.16120347e-01, 2.02104047e-01, 4.10770416e-01, 3.90740752e-01,
          2.10320160e-01, 3.17469776e-01, 4.10770416e-01, 4.10770416e-01,
          2.32293993e-01, 4.34469469e-02, 3.68986875e-01, 4.19000447e-01,
          2.38448028e-02, 0., 2.94998810e-02, 4.19000447e-01,
          4.19000447e-01, 3.41421604e-01, 4.19000447e-01, 4.19000447e-01,
          3.70041698e-01, 3.70041698e-01, 3.70041698e-01, 6.55795708e-02,
          1.82993203e-01, 3.70041698e-01, 3.70041698e-01, 3.70041698e-01,
          3.70041698e-01, 3.85314167e-01, 3.85314167e-01, 3.08387965e-01,
          3.01213443e-01, 3.85314167e-01, 3.85314167e-01, 2.29865476e-01,
          1.46673933e-01, 3.76959413e-01, 3.96625251e-01, 3.96625251e-01,
          3.63121778e-01, 3.96625251e-01, 3.96625251e-01, 3.96625251e-01,
          2.36515626e-02, 7.66612031e-03, 2.77496517e-01, 3.86529535e-01,
          5.24521880e-02, 3.01807132e-02, 4.10209522e-02, 4.10159200e-01,
          4.10159200e-01, 4.10159200e-01, 4.10159200e-01, 4.10159200e-01 ]
      - [ 5.76356828e-01, 5.64257860e-01, 1.69417961e-03, 1.96760893e-02,
          4.84533198e-02, 9.08352286e-02, 2.22412050e-02, 0.,
          5.76356828e-01, 6.94289804e-01, 1.42561216e-02, 6.91313744e-02,
          1.21076487e-01, 8.49066377e-02, 4.57021520e-02, 6.23687962e-03,
          3.73332691e-03, 6.94289804e-01, 6.98456824e-01, 3.33250244e-03,
          9.44810547e-03, 3.29325534e-03, 1.80818106e-03, 1.24863721e-01,
          1.92098711e-02, 3.56263444e-02, 6.98456824e-01, 5.10024905e-01,
          0., 0., 0., 7.20080659e-02, 4.56921548e-01, 2.38247067e-02,
          5.10024905e-01, 5.10024905e-01, 4.04612511e-01, 4.04612511e-01,
          4.04612511e-01, 2.33881205e-01, 1.99824423e-01, 4.04612511e-01,
          4.04612511e-01, 3.34188901e-02, 2.85752565e-01, 3.81093264e-01,
          3.51605445e-01, 3.81093264e-01, 3.81093264e-01, 2.46013582e-01,
          3.76577228e-01, 2.98653841e-01, 1.05258692e-02, 3.81093264e-01,
          4.91371244e-01, 2.76876315e-02, 1.56316385e-01, 1.51502490e-02,
          4.34017293e-02, 4.91371244e-01, 4.91371244e-01, 4.46626171e-02,
          4.91371244e-01, 3.58495712e-01, 5.19018844e-02, 1.16560206e-01,
          6.17303289e-02, 3.22740972e-01, 5.09947598e-01, 1.85509041e-01,
          4.33161259e-01, 5.09947598e-01, 2.60252436e-03, 1.95628360e-01,
          4.37531918e-01, 4.37531918e-01, 4.37531918e-01, 4.37531918e-01,
          4.37531918e-01, 1.34632383e-02, 5.50770383e-05, 0.,
          4.34705824e-01, 4.34705824e-01, 4.34705824e-01, 4.34705824e-01,
          4.34705824e-01, 2.25413114e-01, 8.96861253e-04, 0., 0.,
          3.10095269e-02, 1.00709848e-01, 5.89390621e-02, 5.71464717e-01,
          5.71464717e-01, 5.71464717e-01, 0., 0., 2.03999802e-02,
          4.17585224e-01, 4.17585224e-01, 4.17585224e-01, 4.17585224e-01,
          4.17585224e-01, 3.49747360e-01, 0., 3.46680097e-02, 0.,
          1.76868588e-02, 2.88657039e-01, 6.24407649e-01, 6.24407649e-01,
          3.61054391e-01, 0., 0., 0., 0., 8.76930822e-03, 2.71170050e-01,
          4.91705894e-01, 7.06947863e-01, 4.21623647e-01, 4.07483662e-03,
          0., 0., 0., 5.28258085e-03, 2.64411606e-02, 1.03345767e-01,
          6.86868608e-01, 6.86868608e-01, 1.95342928e-01, 0., 0., 0.,
          1.39921885e-02, 2.20889360e-01, 6.46355569e-01, 7.19354570e-01,
          8.65377709e-02, 3.31074819e-02, 0., 0. ]
      - [ 5.65561712e-01, 5.65561712e-01, 1.05427064e-01, 1.53148010e-01,
          1.27340783e-04, 0., 0., 1.42482845e-02, 5.65561712e-01,
          6.93572938e-01, 1.50285950e-02, 8.12099373e-04, 9.29707661e-03,
          0., 0., 0., 1.75146922e-01, 6.93572938e-01, 7.04526484e-01, 0.,
          0., 0., 0., 0., 0., 1.58750862e-02, 7.04526484e-01,
          7.04615593e-01, 0., 0., 0., 0., 0., 0., 0., 7.04615593e-01,
          4.77405369e-01, 4.77405369e-01, 4.77405369e-01, 4.77405369e-01,
          1.79649875e-01, 5.41315321e-03, 8.07857024e-04, 2.80419015e-03,
          2.26398528e-01, 4.10088092e-01, 1.01383470e-01, 3.96258682e-01,
          3.47844303e-01, 2.57393718e-01, 4.56787795e-01, 2.30298206e-01,
          4.86931726e-02, 4.56787795e-01, 5.00438154e-01, 0., 0.,
          3.07419244e-02, 5.00438154e-01, 4.88070846e-01, 6.72702864e-02,
          1.88688410e-03, 5.00438154e-01, 5.37657678e-01, 0., 0.,
          1.65904984e-02, 5.37657678e-01, 3.56550127e-01, 0., 0.,
          5.37657678e-01, 4.90874425e-02, 4.94867235e-01, 4.94867235e-01,
          4.94867235e-01, 4.94867235e-01, 1.14331201e-01, 4.17836651e-04,
          0., 1.32741919e-03, 5.64071124e-05, 1.04530588e-01,
          2.86005884e-01, 2.78435826e-01, 5.44923127e-01, 5.44923127e-01,
          4.79537278e-01, 1.43267354e-02, 1.61849130e-02, 1.37320578e-01,
          0., 2.08839145e-03, 8.94519463e-02, 5.47764599e-01,
          5.47764599e-01, 5.47764599e-01, 5.40067703e-02, 2.54189074e-01,
          3.85183357e-02, 0., 1.48937106e-03, 1.10074267e-01,
          7.44056821e-01, 5.11057973e-01, 3.30350637e-01, 1.46373749e-01,
          1.83339879e-01, 1.10343550e-04, 1.24914050e-01, 2.61171669e-01,
          4.83416468e-01, 7.96965420e-01, 1.98460951e-01, 0., 0.,
          1.10343550e-04, 0., 0., 5.17639797e-03, 1.22186169e-01,
          8.07756841e-01, 5.68091571e-01, 4.11307178e-02, 6.65780436e-03,
          6.88560028e-03, 6.13944344e-02, 0., 3.57929734e-03,
          2.90425092e-01, 6.50616348e-01, 6.50616348e-01, 2.11002037e-01,
          3.66521254e-02, 1.13609597e-01, 2.66693123e-02, 0.,
          2.84530083e-03, 1.89966649e-01, 5.53322375e-01, 5.53322375e-01,
          5.53322375e-01, 1.51844501e-01, 1.26940802e-01 ]
      - [ 5.35667181e-01, 5.35667181e-01, 2.53141940e-01, 6.38590157e-02,
          1.25317350e-02, 1.74219348e-02, 4.24298048e-02, 2.51819223e-01,
          5.35667181e-01, 6.53602421e-01, 3.36895883e-01, 3.74778770e-02,
          1.03706911e-01, 3.44665833e-02, 5.89248836e-02, 5.25551774e-02,
          7.74711743e-02, 6.53602421e-01, 5.73076904e-01, 2.99973134e-02,
          1.51990959e-02, 4.86232676e-02, 2.88339965e-02, 8.66807532e-03,
          6.80033118e-02, 5.73076904e-01, 5.73076904e-01, 5.74577451e-01,
          0., 0., 0., 1.43475819e-03, 4.64461948e-04, 3.43981665e-03,
          5.76234639e-01, 5.76234639e-01, 1.71075791e-01, 4.80960041e-01,
          4.80960041e-01, 4.80960041e-01, 3.45071971e-01, 1.49088725e-01,
          3.47470909e-01, 8.89180154e-02, 4.49112542e-02, 2.51464099e-01,
          2.42212668e-01, 3.44715595e-01, 4.34234679e-01, 4.34234679e-01,
          4.34234679e-01, 2.72695392e-01, 1.86518773e-01, 2.83021450e-01,
          8.92537758e-02, 3.61803956e-02, 4.22699703e-03, 2.87303180e-01,
          5.47645807e-01, 4.56406444e-01, 6.06180802e-02, 3.01465601e-01,
          5.47645807e-01, 1.87568694e-01, 0., 0., 5.35910845e-01,
          5.35910845e-01, 1.33331254e-01, 7.95885921e-02, 2.71575332e-01,
          5.35910845e-01, 3.89819890e-01, 3.89819890e-01, 3.89819890e-01,
          3.89819890e-01, 3.54730129e-01, 1.66473269e-01, 3.89819890e-01,
          2.76561022e-01, 7.92150497e-02, 3.14036131e-01, 3.39011908e-01,
          3.39011908e-01, 3.05762440e-01, 3.39011908e-01, 3.39011908e-01,
          3.39011908e-01, 3.39011908e-01, 3.39011908e-01, 4.93332222e-02,
          4.88702999e-03, 1.46610895e-02, 1.14962451e-01, 4.42648709e-01,
          4.42648709e-01, 4.42648709e-01, 4.42648709e-01, 4.42648709e-01,
          4.55860198e-02, 1.06342547e-02, 1.28611103e-02, 6.59687459e-01,
          6.59687459e-01, 2.80506611e-01, 1.78646490e-01, 9.91018191e-02,
          1.62087455e-02, 1.91657364e-01, 4.59324688e-01, 4.59324688e-01,
          4.59324688e-01, 4.59324688e-01, 2.42754951e-01, 2.22438022e-01,
          7.61773735e-02, 2.34766155e-02, 1.50801346e-01, 1.97808683e-01,
          1.32759437e-01, 3.21230024e-01, 8.39098871e-01, 2.13056564e-01,
          5.77827133e-02, 7.59483427e-02, 2.24402562e-01, 1.46525502e-02,
          8.35217244e-04, 2.50565168e-03, 7.44325714e-03, 4.83717173e-01,
          4.83717173e-01, 4.83717173e-01, 4.57142800e-01, 2.89767712e-01,
          1.37513697e-01, 4.29463573e-02, 6.24583513e-02, 2.85640489e-02,
          5.14627457e-01, 5.14627457e-01, 5.14627457e-01, 4.17284817e-01,
          2.71718111e-02 ]
      - [ 4.89378303e-01, 4.89378303e-01, 1.63362741e-01, 7.42164254e-03,
          2.71295458e-01, 1.34034485e-01, 3.24141681e-01, 2.30785653e-01,
          4.89378303e-01, 5.12573838e-01, 1.14334315e-01, 8.88740271e-03,
          9.52309754e-04, 4.02104631e-02, 7.90369958e-02, 5.12573838e-01,
          4.30893421e-01, 5.12573838e-01, 6.92609191e-01, 2.15932876e-02,
          1.37734431e-04, 9.66248626e-04, 0., 0., 1.27605591e-02,
          1.81771263e-01, 6.92609191e-01, 5.32403886e-01, 3.56671363e-01,
          7.10990205e-02, 9.01265368e-02, 5.92111088e-02, 4.89044301e-02,
          1.49886504e-01, 5.08939624e-01, 5.32403886e-01, 4.24203724e-01,
          4.24203724e-01, 3.25181901e-01, 5.37743457e-02, 4.24203724e-01,
          4.24203724e-01, 3.59614372e-01, 1.01977751e-01, 1.66163489e-01,
          5.81860840e-01, 5.81860840e-01, 7.04102442e-02, 5.06769121e-02,
          1.11190967e-01, 1.12656713e-01, 2.28379816e-01, 9.81267467e-02,
          4.71910000e-01, 5.68115115e-01, 1.38990343e-01, 5.47757261e-02,
          3.44215780e-02, 3.48456018e-02, 1.24949552e-02, 3.44773345e-02,
          5.68115115e-01, 5.68115115e-01, 3.09728652e-01, 5.75161614e-02,
          6.63280115e-03, 3.57075743e-02, 2.35349666e-02, 1.54322544e-02,
          9.81427059e-02, 6.64223492e-01, 6.64223492e-01, 1.36881948e-01,
          5.08797169e-01, 5.08797169e-01, 5.08797169e-01, 3.20166349e-01,
          1.93880558e-01, 2.08455265e-01, 1.26484409e-01, 3.15779052e-03,
          3.03479224e-01, 4.84018296e-01, 4.01968956e-01, 4.84018296e-01,
          4.84018296e-01, 6.00532517e-02, 1.27961785e-01, 1.32092550e-01,
          3.51700671e-02, 4.42446247e-02, 2.23517850e-01, 1.28137380e-01,
          2.15713650e-01, 5.89360714e-01, 1.89506277e-01, 4.61944900e-02,
          5.89360714e-01, 3.82762671e-01, 2.44754270e-01, 3.54465377e-03,
          0., 4.05276567e-01, 5.27349830e-01, 3.27924676e-02,
          1.58753525e-02, 4.61567014e-01, 5.27349830e-01, 1.11037330e-03,
          0., 5.25684178e-01, 5.50852776e-01, 5.50852776e-01,
          2.77196378e-01, 1.79290250e-01, 4.78768088e-02, 1.11037330e-03,
          0., 2.88130308e-04, 4.01708484e-02, 7.03999460e-01,
          7.03999460e-01, 1.13255689e-02, 8.14107043e-05, 0., 0.,
          2.52796212e-06, 3.29434028e-04, 8.04458372e-03, 2.13649169e-01,
          9.62872624e-01, 1.32237867e-01, 3.04800202e-03, 0.,
          7.98168965e-03, 1.97866689e-02, 0., 0., 6.92223370e-01,
          7.00454175e-01, 1.44982282e-02, 2.48467131e-03, 1.00026366e-04,
          1.50301233e-01 ]
      - [ 6.27218306e-01, 4.38298225e-01, 0., 0., 0., 0., 2.21415367e-02,
          1.19734854e-01, 6.27218306e-01, 7.00372994e-01, 1.09379180e-01,
          0., 0., 0., 0., 0., 0., 7.00372994e-01, 7.04034209e-01,
          4.05428149e-02, 0., 0., 0., 0., 0., 1.77492446e-04,
          7.04034209e-01, 6.89496636e-01, 0., 0., 0., 6.94600586e-03, 0.,
          1.00696899e-01, 1.79213703e-01, 6.89496636e-01, 4.44585145e-01,
          4.44585145e-01, 4.44585145e-01, 2.35028908e-01, 7.07520023e-02,
          7.79811218e-02, 2.71432966e-01, 2.54821628e-01, 4.44585145e-01,
          4.27559435e-01, 4.27559435e-01, 4.27559435e-01, 1.83820099e-01,
          6.33532107e-02, 1.80536464e-01, 4.27559435e-01, 1.06287107e-01,
          4.27559435e-01, 4.78190273e-01, 2.36184567e-01, 4.78190273e-01,
          8.12640265e-02, 1.12558462e-01, 4.78190273e-01, 7.40476847e-02,
          4.53804992e-03, 4.78190273e-01, 5.20838201e-01, 0., 0.,
          9.86497267e-04, 2.31137410e-01, 5.20838201e-01, 2.79200673e-01,
          2.22716555e-01, 5.20838201e-01, 9.67163034e-03, 7.59128928e-02,
          4.90746498e-01, 4.90746498e-01, 4.90746498e-01, 3.05364192e-01,
          3.80600035e-01, 1.67331278e-01, 2.53477544e-02, 4.23798673e-02,
          2.89002866e-01, 3.26125592e-01, 4.32759613e-01, 6.29191399e-01,
          4.34651762e-01, 1.58844054e-01, 6.76184744e-02, 1.23599889e-02,
          5.81535185e-03, 1.35534644e-01, 1.48904070e-01, 1.08697921e-01,
          6.80111825e-01, 6.80111825e-01, 1.25339627e-01, 2.07579229e-03,
          9.05479712e-04, 1.38759203e-02, 2.12723436e-03, 7.67248031e-03,
          2.23841127e-02, 3.64090741e-01, 8.36112916e-01, 3.98789644e-01,
          1.45150693e-02, 2.92984885e-03, 0., 0., 1.26725882e-01,
          6.82627738e-01, 6.82627738e-01, 2.08354056e-01, 4.18721437e-02,
          0., 0., 0., 0., 1.00715654e-02, 1.73313573e-01, 9.33903515e-01,
          2.97267288e-01, 0., 0., 0., 0., 0., 0., 8.83174245e-04,
          7.04595029e-01, 7.04595029e-01, 7.57920602e-03, 0., 0., 0.,
          5.89568447e-03, 2.12644786e-02, 1.63780391e-01, 6.91873848e-01,
          6.91873848e-01, 9.16707218e-02, 0., 0. ]
      - [ 5.01477957e-01, 5.01477957e-01, 4.43851024e-01, 0.,
          1.89170509e-03, 4.94862571e-02, 1.60641730e-01, 1.23649240e-01,
          5.01477957e-01, 6.67044878e-01, 2.87129402e-01, 1.39814883e-01,
          1.76071860e-02, 8.93096160e-03, 0., 0., 3.25827710e-02,
          6.67044878e-01, 5.36000490e-01, 2.42885109e-02, 0.,
          1.82422448e-03, 2.30485620e-03, 0., 0., 5.94210267e-01,
          5.94210267e-01, 5.99878013e-01, 5.15277326e-01, 0., 0.,
          1.61263850e-02, 1.91415250e-02, 0., 9.03656855e-02,
          5.99878013e-01, 4.47452694e-01, 5.07742226e-01, 5.07742226e-01,
          1.17910191e-01, 8.72147232e-02, 2.87948459e-01, 4.08980727e-01,
          5.70557527e-02, 6.45493791e-02, 3.52454633e-01, 3.52454633e-01,
          3.52454633e-01, 3.52454633e-01, 3.52454633e-01, 3.52454633e-01,
          3.52454633e-01, 5.18122911e-02, 3.52454633e-01, 4.55270678e-01,
          6.52662292e-02, 4.33020681e-01, 2.02288792e-01, 7.23651871e-02,
          3.57041389e-01, 9.07508954e-02, 4.55270678e-01, 4.55270678e-01,
          4.88473147e-01, 3.14859331e-01, 0., 3.35682678e-04,
          4.61253405e-01, 4.88473147e-01, 4.53551188e-02, 6.71586245e-02,
          4.46598947e-01, 3.01383156e-02, 3.44599396e-01, 4.44986343e-01,
          4.44986343e-01, 4.44986343e-01, 3.44107747e-01, 4.03362453e-01,
          2.73514166e-02, 0., 4.04845960e-02, 4.06881958e-01,
          4.06881958e-01, 4.06881958e-01, 4.06881958e-01, 4.06881958e-01,
          4.06881958e-01, 3.12850736e-02, 0., 1.00066802e-02,
          1.62959591e-01, 5.43251753e-01, 1.46280140e-01, 5.43251753e-01,
          5.43251753e-01, 2.45027438e-01, 2.51532681e-02, 2.19685528e-02,
          2.48867590e-02, 0., 0., 9.13594849e-03, 3.95025969e-01,
          8.37826252e-01, 3.63704950e-01, 4.78847558e-03, 2.51740720e-02,
          0., 0., 9.28179920e-02, 6.60553634e-01, 6.60553634e-01,
          3.01411211e-01, 1.45866111e-01, 1.47225091e-03, 0., 0.,
          8.55876282e-02, 5.34605801e-01, 5.68728924e-01, 5.68728924e-01,
          2.32995898e-01, 0., 0., 0., 0., 2.04156842e-02, 9.49447155e-02,
          1.46525934e-01, 6.93458855e-01, 6.93458855e-01, 2.01462712e-02,
          0., 0., 0., 0., 0., 9.78086591e-02, 6.81008518e-01,
          6.81008518e-01, 2.36831948e-01, 6.39442238e-04, 0. ]
      - [ 4.30611551e-01, 4.87742186e-01, 4.87742186e-01, 3.57413143e-01,
          7.13549322e-03, 2.76169311e-02, 1.75949141e-01, 3.10308814e-01,
          2.79481560e-01, 4.57446009e-01, 3.97290915e-01, 1.41847104e-01,
          8.86785612e-03, 1.12382025e-01, 4.57446009e-01, 4.57446009e-01,
          2.18387842e-01, 3.59580398e-01, 3.93831819e-01, 2.74133921e-01,
          2.41539791e-01, 3.93831819e-01, 3.93831819e-01, 3.93831819e-01,
          1.82300031e-01, 2.31999695e-01, 3.93831819e-01, 3.44540998e-02,
          5.99607006e-02, 4.72664744e-01, 4.72664744e-01, 2.26489618e-01,
          4.64000134e-03, 2.57688671e-01, 4.72664744e-01, 4.50042367e-01,
          1.58196092e-02, 8.79474878e-02, 6.35725021e-01, 4.66146171e-01,
          1.51720140e-02, 8.25028047e-02, 5.94307780e-01, 6.18034825e-02,
          1.30751720e-02, 4.94158790e-02, 1.35033146e-01, 5.23228645e-01,
          2.93695867e-01, 5.69600165e-02, 5.23228645e-01, 5.23228645e-01,
          2.50705779e-01, 2.09540017e-02, 2.67724514e-01, 2.98722684e-01,
          3.52525145e-01, 3.52525145e-01, 3.52525145e-01, 3.52525145e-01,
          3.52525145e-01, 3.06940854e-01, 3.46386671e-01, 6.56996947e-03,
          4.88825411e-01, 4.88825411e-01, 2.66084254e-01, 1.48318052e-01,
          3.48965079e-01, 4.88825411e-01, 2.47928366e-01, 4.66835201e-02,
          3.02342385e-01, 3.14750075e-01, 3.93742740e-01, 3.93742740e-01,
          3.93742740e-01, 1.56095222e-01, 3.93742740e-01, 3.11008662e-01,
          2.53697366e-01, 8.24009627e-02, 1.22451894e-01, 4.24656004e-01,
          4.09500301e-01, 2.24102467e-01, 1.86360568e-01, 4.24656004e-01,
          4.24656004e-01, 4.24656004e-01, 1.41063556e-02, 7.16377199e-02,
          2.97260463e-01, 3.58794421e-01, 4.84100878e-01, 2.48596832e-01,
          8.87429193e-02, 4.84100878e-01, 4.84100878e-01, 7.02364072e-02,
          4.29938227e-01, 4.40060288e-01, 4.40060288e-01, 4.40060288e-01,
          4.40060288e-01, 1.45702615e-01, 5.18441051e-02, 8.54099989e-02,
          4.34228271e-01, 4.34228271e-01, 4.34228271e-01, 1.40748575e-01,
          6.08139187e-02, 3.21517326e-03, 1.71384245e-01, 4.34228271e-01,
          4.34228271e-01, 4.15554285e-01, 3.99481207e-01, 4.15554285e-01,
          4.15554285e-01, 3.22682709e-02, 4.00239937e-02, 5.24298549e-02,
          3.74339670e-01, 4.15554285e-01, 5.55523634e-02, 7.30577409e-02,
          8.69499892e-02, 3.00562195e-02, 1.95556544e-02, 1.72952667e-01,
          5.61903477e-01, 5.61903477e-01, 5.61903477e-01, 3.79534781e-01,
          2.55163819e-01, 3.86915565e-01, 3.59472066e-01, 2.51348168e-01,
          9.11388993e-02, 3.86915565e-01, 3.86915565e-01, 3.70359570e-01 ]
      - [ 5.74521005e-01, 5.74521005e-01, 6.00936711e-02, 0., 0., 0.,
          1.24635529e-02, 1.65310502e-02, 5.74521005e-01, 6.99585199e-01,
          7.27307796e-02, 0., 0., 0., 0., 0., 9.42746401e-02,
          6.99585199e-01, 6.94000006e-01, 0., 0., 0., 0., 0., 0.,
          6.29199073e-02, 7.12246776e-01, 7.04603910e-01, 5.75406197e-03,
          0., 0., 0., 0., 0., 0., 7.04603910e-01, 5.45987129e-01,
          5.45987129e-01, 5.45987129e-01, 8.60337466e-02, 2.01477602e-01,
          1.84138238e-01, 3.94213423e-02, 1.00814411e-02, 1.29166260e-01,
          5.32727301e-01, 2.44078353e-01, 2.70790428e-01, 2.36633569e-01,
          3.55000764e-01, 3.08569819e-01, 6.60892799e-02, 1.12148255e-01,
          5.32727301e-01, 4.19673145e-01, 1.88566442e-03, 1.30043346e-02,
          5.40983640e-02, 5.46082497e-01, 4.64186609e-01, 5.45609966e-02,
          2.15296447e-02, 5.46082497e-01, 5.66245735e-01, 2.12593048e-04,
          0., 8.10433403e-02, 5.66245735e-01, 1.44502312e-01,
          6.99929446e-02, 9.74038057e-03, 5.66245735e-01, 2.25181878e-03,
          4.44027811e-01, 4.44027811e-01, 4.44027811e-01, 4.44027811e-01,
          4.44027811e-01, 9.87615734e-02, 4.16987285e-04, 1.46059378e-03,
          4.61702375e-03, 1.52805671e-01, 4.67937380e-01, 4.67937380e-01,
          4.67937380e-01, 4.67937380e-01, 3.09703231e-01, 9.94955539e-04,
          1.32878842e-02, 1.89496856e-02, 5.69404010e-03, 4.02425341e-02,
          1.01814829e-01, 5.69130242e-01, 5.69130242e-01, 5.69130242e-01,
          5.43149933e-03, 1.00908719e-01, 8.52767900e-02, 1.08395668e-03,
          4.01105406e-03, 1.37225658e-01, 8.67949605e-01, 4.10658568e-01,
          6.55820370e-02, 1.74434669e-02, 1.96562380e-01, 1.22303620e-03,
          1.43169295e-02, 4.28708076e-01, 5.95760524e-01, 5.95760524e-01,
          3.16503525e-01, 4.12838627e-03, 0., 1.22303620e-03, 0.,
          2.77825929e-02, 2.92304963e-01, 5.48899531e-01, 5.48899531e-01,
          5.48899531e-01, 6.65773749e-02, 0., 0., 0., 6.51513645e-03,
          5.17156608e-02, 1.13575511e-01, 5.71087599e-01, 5.71087599e-01,
          5.71087599e-01, 1.58440899e-02, 2.60058627e-03, 0.,
          1.13516599e-02, 6.42399043e-02, 1.92578390e-01, 6.09357059e-01,
          5.63750148e-01, 4.85220790e-01, 1.66458413e-01, 1.72029510e-02 ]
      - [ 4.73258644e-01, 4.73258644e-01, 4.73258644e-01, 6.72817975e-02,
          4.14865883e-03, 2.05400353e-03, 1.47736534e-01, 2.70191967e-01,
          4.73258644e-01, 4.43886995e-01, 4.43886995e-01, 6.56988323e-02,
          1.50814224e-02, 6.23484254e-02, 4.43886995e-01, 1.19374208e-01,
          4.29816306e-01, 4.43886995e-01, 4.31805104e-01, 2.33988404e-01,
          6.21302389e-02, 4.31805104e-01, 4.31805104e-01, 4.31805104e-01,
          2.75068246e-02, 6.35700449e-02, 4.31805104e-01, 1.60100698e-01,
          1.20147960e-02, 2.61848032e-01, 5.23243129e-01, 1.84023485e-01,
          1.05313538e-02, 2.12385654e-01, 5.23243129e-01, 5.23243129e-01,
          7.50578344e-02, 3.26048404e-01, 6.78836763e-01, 6.08563662e-01,
          3.60801024e-03, 4.38817078e-03, 1.94321483e-01, 9.52705070e-02,
          5.69499396e-02, 2.86823541e-01, 2.61487573e-01, 4.93690580e-01,
          1.84074461e-01, 3.50203663e-02, 4.93690580e-01, 4.93690580e-01,
          2.49597847e-01, 1.25800028e-01, 3.32778692e-01, 3.32778692e-01,
          3.32778692e-01, 3.32778692e-01, 3.32778692e-01, 3.32778692e-01,
          3.32778692e-01, 3.32778692e-01, 3.32778692e-01, 8.08762666e-03,
          2.21029565e-01, 4.78348076e-01, 4.78348076e-01, 5.72112910e-02,
          1.11436903e-01, 4.78348076e-01, 4.78348076e-01, 1.23871088e-01,
          2.15592235e-01, 3.80360216e-01, 4.99903291e-01, 4.99903291e-01,
          2.03756928e-01, 5.74195124e-02, 3.65641922e-01, 2.19049081e-01,
          2.78489381e-01, 9.19549391e-02, 4.42176647e-02, 4.11319107e-01,
          4.11319107e-01, 2.83060163e-01, 2.43803248e-01, 4.11319107e-01,
          4.11319107e-01, 4.11319107e-01, 3.55767719e-02, 2.05686271e-01,
          3.73090118e-01, 3.73090118e-01, 3.73090118e-01, 3.73090118e-01,
          3.42815846e-01, 3.73090118e-01, 3.73090118e-01, 2.95026284e-02,
          4.29371417e-01, 4.29371417e-01, 2.48595268e-01, 4.29371417e-01,
          4.29371417e-01, 4.29371417e-01, 9.94938463e-02, 3.66437696e-02,
          4.32391226e-01, 4.32391226e-01, 4.32391226e-01, 2.10030705e-01,
          7.86205158e-02, 5.29983360e-03, 1.02702565e-01, 4.32391226e-01,
          4.32391226e-01, 4.26324099e-01, 3.91157418e-01, 4.26324099e-01,
          3.12923729e-01, 9.94271636e-02, 2.82630883e-02, 8.43955874e-02,
          4.26324099e-01, 4.26324099e-01, 4.19023298e-02, 9.13007185e-02,
          1.72564059e-01, 3.86256725e-02, 4.55928519e-02, 9.84693468e-02,
          5.60139775e-01, 5.60139775e-01, 5.60139775e-01, 3.69128853e-01,
          1.93108872e-01, 3.69128853e-01, 2.76224941e-01, 3.69128853e-01,
          3.08293015e-01, 3.69128853e-01, 3.69128853e-01, 3.26183408e-01 ]
      - [ 5.44050932e-01, 1.54518500e-01, 2.82071799e-01, 0., 0.,
          1.74802989e-02, 5.33533357e-02, 5.44050932e-01, 5.44050932e-01,
          5.62653244e-01, 1.73912361e-01, 1.98967695e-01, 0., 0.,
          8.61858949e-02, 4.82067466e-01, 2.27097616e-01, 5.62653244e-01,
          6.09431922e-01, 4.92873132e-01, 0., 0., 0., 0., 4.69585322e-02,
          7.72755891e-02, 6.09431922e-01, 5.83463848e-01, 2.00712234e-02,
          0., 0., 0., 0., 0., 5.59384406e-01, 5.83463848e-01,
          3.95538807e-01, 1.02997795e-01, 4.02240455e-01, 5.17399907e-02,
          3.78302366e-01, 6.39552176e-02, 4.15176928e-01, 4.15176928e-01,
          4.15176928e-01, 3.73162121e-01, 3.73162121e-01, 3.73162121e-01,
          2.96269685e-01, 3.73162121e-01, 2.19992355e-01, 3.73162121e-01,
          1.56843036e-01, 3.73162121e-01, 4.39478725e-01, 4.39478725e-01,
          4.39478725e-01, 4.39478725e-01, 2.86160111e-02, 9.97324660e-02,
          8.23716149e-02, 1.11137934e-01, 4.39478725e-01, 3.25887173e-01,
          6.38319701e-02, 9.76684876e-03, 5.07237501e-02, 1.12392828e-02,
          4.69637483e-01, 4.69637483e-01, 4.69637483e-01, 4.69637483e-01,
          6.84032543e-03, 0., 2.44371109e-02, 7.12352246e-02,
          5.43007672e-01, 5.43007672e-01, 5.43007672e-01, 3.22842032e-01,
          7.73650641e-03, 2.36121099e-02, 3.05981487e-01, 5.12876511e-01,
          5.12876511e-01, 5.12876511e-01, 9.24674422e-02, 3.14860106e-01,
          6.22521341e-02, 2.49655196e-03, 2.07073893e-02, 1.65834427e-01,
          4.46955234e-01, 5.25236785e-01, 5.25236785e-01, 4.60808277e-01,
          4.02979106e-02, 7.70436088e-03, 3.57879773e-02, 1.33568747e-03,
          5.58782369e-03, 3.47156823e-03, 2.36078143e-01, 5.53748965e-01,
          5.53748965e-01, 5.53748965e-01, 1.29493698e-01, 4.48317491e-02,
          0., 0., 0., 2.89595332e-02, 6.50363088e-01, 6.50363088e-01,
          3.83045763e-01, 0., 0., 0., 0., 0., 6.51560783e-01,
          6.51560783e-01, 1.63358912e-01, 3.43141258e-01, 0., 0., 0., 0.,
          0., 6.81098640e-01, 6.81098640e-01, 2.55753875e-01, 0., 0., 0.,
          0., 0., 0., 1.74588516e-01, 6.90495729e-01, 6.90495729e-01,
          9.51694474e-02, 0., 0. ]
      - [ 6.98340356e-01, 8.06353986e-02, 0., 0., 0., 0., 0.,
          1.05680145e-01, 6.98340356e-01, 6.80616379e-01, 2.58315444e-01,
          0., 0., 0., 0., 0., 1.13061874e-03, 6.80616379e-01,
          7.04563379e-01, 1.21546471e-02, 0., 0., 0., 0., 0., 0.,
          7.04563379e-01, 6.87922657e-01, 0., 0., 0., 0., 0., 0.,
          2.16003075e-01, 6.87922657e-01, 6.84253871e-01, 2.08833620e-01,
          1.91287491e-02, 8.81412923e-02, 2.26290859e-02, 2.58663855e-03,
          3.70434411e-02, 5.59042618e-02, 6.84253871e-01, 5.51996708e-01,
          3.19783241e-01, 0., 9.27895599e-05, 2.75864273e-01,
          5.51996708e-01, 1.89041585e-01, 1.54312313e-01, 3.83634537e-01,
          4.28480625e-01, 1.39338017e-01, 4.28480625e-01, 2.39847496e-01,
          4.28480625e-01, 4.28480625e-01, 7.28603220e-03, 2.73214579e-02,
          4.28480625e-01, 4.39817816e-01, 1.18277192e-01, 4.20547515e-01,
          1.31816223e-01, 1.16003789e-01, 1.28758941e-02, 4.39817816e-01,
          4.39817816e-01, 4.39817816e-01, 4.23333973e-01, 1.16139591e-01,
          3.18597071e-02, 6.19485915e-01, 6.19485915e-01, 4.02908213e-02,
          6.40556961e-02, 5.56318387e-02, 1.54119238e-01, 1.33107051e-01,
          9.18329973e-03, 0., 5.11752181e-02, 4.92399931e-01,
          4.92399931e-01, 4.92399931e-01, 4.92399931e-01, 6.95021302e-02,
          6.32553697e-02, 2.79336035e-01, 4.27741021e-01, 4.27741021e-01,
          4.27741021e-01, 4.27741021e-01, 2.24991143e-01, 3.59979987e-01,
          4.05137278e-02, 2.29527475e-03, 9.79650319e-02, 4.43198770e-01,
          4.43198770e-01, 4.43198770e-01, 3.83245945e-01, 4.43198770e-01,
          2.31056869e-01, 2.29527475e-03, 0., 0., 0., 7.04447448e-01,
          7.04447448e-01, 2.18024123e-02, 0., 0., 0., 0., 0., 0.,
          5.40084578e-02, 9.05684173e-01, 3.77094686e-01, 1.53697252e-01,
          4.42677215e-02, 0., 0., 0., 2.04356611e-01, 6.47033691e-01,
          6.47033691e-01, 2.93889999e-01, 1.27508789e-01, 1.08828217e-01,
          0., 0., 0., 3.88398506e-02, 3.55226547e-01, 8.58563125e-01,
          3.48687112e-01, 7.08868057e-02, 0., 0. ]
      - [ 5.09798229e-01, 5.09798229e-01, 7.68638924e-02, 1.85615513e-02,
          1.35610495e-02, 0., 4.93795305e-01, 3.19451749e-01,
          3.50428551e-01, 5.76441705e-01, 5.47121584e-01, 4.58499475e-04,
          6.79417187e-03, 1.48947584e-02, 0., 2.37056607e-04,
          1.73388615e-01, 5.76441705e-01, 5.62122643e-01, 3.52464733e-03,
          0., 2.81842216e-03, 2.93476973e-03, 0., 2.15434507e-01,
          5.62122643e-01, 5.62122643e-01, 4.93516833e-01, 4.56385575e-02,
          1.79285500e-02, 1.11161329e-01, 6.49136156e-02, 4.31322865e-02,
          4.93516833e-01, 4.93516833e-01, 4.93516833e-01, 4.16255862e-01,
          5.62554598e-01, 5.62554598e-01, 1.68480173e-01, 3.16113047e-02,
          1.17327226e-03, 2.99050391e-01, 2.63135016e-01, 1.09847412e-02,
          4.33061212e-01, 4.33061212e-01, 2.68180460e-01, 2.63231486e-01,
          3.22608769e-01, 7.63323307e-02, 1.21439487e-01, 4.33061212e-01,
          4.08883661e-01, 6.69476464e-02, 5.20572029e-02, 3.21212746e-02,
          3.53782959e-02, 1.23932287e-01, 1.02116831e-01, 1.48693100e-01,
          6.84031963e-01, 6.84031963e-01, 1.97429478e-01, 2.11494137e-02,
          1.72234583e-03, 1.99740566e-02, 2.31225081e-02, 1.04042878e-02,
          3.17430384e-02, 6.89795554e-01, 6.89795554e-01, 3.79968993e-03,
          3.63847166e-01, 4.59211022e-01, 4.59211022e-01, 4.59211022e-01,
          5.03851585e-02, 4.59211022e-01, 1.30269647e-01, 2.46281223e-03,
          4.12989035e-02, 5.34864888e-02, 9.14357454e-02, 6.91559553e-01,
          6.91559553e-01, 1.50431156e-01, 9.75446869e-03, 1.68484934e-02,
          2.55278852e-02, 1.35836089e-02, 1.67350136e-02, 6.96527772e-03,
          3.96378040e-01, 6.45726085e-01, 5.52508056e-01, 5.80345914e-02,
          2.52346039e-01, 2.15987697e-01, 9.58430693e-02, 3.29836458e-02,
          0., 5.17512202e-01, 5.17512202e-01, 2.55914256e-02,
          1.54619422e-02, 4.24508125e-01, 5.17512202e-01, 0.,
          4.12112381e-03, 2.49822345e-02, 4.98495311e-01, 4.98495311e-01,
          4.98495311e-01, 4.98495311e-01, 1.97497755e-02, 0., 0.,
          2.63271679e-04, 7.89815036e-04, 4.40638304e-01, 8.87197196e-01,
          9.93276685e-02, 0., 0., 0., 0., 0., 0., 5.76133788e-01,
          7.85731614e-01, 2.07012087e-01, 0., 0., 0., 3.97625566e-03, 0.,
          0., 7.04507768e-01, 7.04507768e-01, 6.10801578e-03,
          2.25826981e-03, 9.07056220e-03, 1.28323119e-02 ]
      - [ 4.12066460e-01, 1.61954403e-01, 6.91171139e-02, 4.82795909e-02,
          3.36975396e-01, 4.12066460e-01, 4.12066460e-01, 4.12066460e-01,
          4.12066460e-01, 4.68428999e-01, 9.72822905e-02, 6.68729236e-03,
          2.03005467e-02, 4.68428999e-01, 4.68428999e-01, 1.51829362e-01,
          2.90939003e-01, 4.68428999e-01, 4.81906950e-01, 3.48182544e-02,
          1.29747170e-03, 3.42177711e-02, 4.81906950e-01, 4.81906950e-01,
          7.64018903e-03, 2.52599120e-01, 4.81906950e-01, 5.42351902e-01,
          1.98110163e-01, 0., 2.03222349e-01, 5.42351902e-01,
          1.77168712e-01, 0., 1.45376967e-02, 5.42351902e-01,
          5.46519347e-02, 1.55667379e-01, 3.11602741e-01, 1.66568696e-01,
          3.01257253e-01, 4.02590334e-01, 4.77889687e-01, 4.77889687e-01,
          3.65478277e-01, 4.42380577e-01, 4.42380577e-01, 2.54120439e-01,
          1.68649390e-01, 2.45447367e-01, 1.63417608e-01, 1.81133062e-01,
          4.42380577e-01, 4.42380577e-01, 5.58731794e-01, 1.26480311e-01,
          3.37700136e-02, 4.92712148e-02, 1.87763289e-01, 5.52450828e-02,
          2.09098728e-03, 5.58731794e-01, 5.58731794e-01, 5.28305352e-01,
          6.66987710e-03, 0., 5.52370176e-02, 4.27664012e-01,
          4.31098416e-02, 1.10959709e-01, 4.04704541e-01, 5.92477143e-01,
          1.14885062e-01, 4.32874501e-01, 4.32874501e-01, 1.88315764e-01,
          4.02916521e-02, 9.21374708e-02, 4.32874501e-01, 4.32874501e-01,
          4.32874501e-01, 3.55307907e-01, 4.08900946e-01, 4.08900946e-01,
          4.08900946e-01, 1.47180349e-01, 2.70500313e-02, 2.14584604e-01,
          3.63910973e-01, 4.08900946e-01, 1.41204402e-01, 6.83412105e-02,
          1.29495442e-01, 5.05309761e-01, 5.05309761e-01, 2.18537431e-02,
          4.50934805e-02, 4.30174619e-01, 5.05309761e-01, 4.51965719e-01,
          0., 0., 3.43770206e-01, 5.74443161e-01, 3.49709135e-03,
          7.76923914e-03, 1.08491346e-01, 5.74443161e-01, 6.58799559e-02,
          1.87759176e-01, 4.40328270e-01, 4.40328270e-01, 4.40328270e-01,
          2.86882460e-01, 4.40328270e-01, 2.54414290e-01, 1.82822064e-01,
          8.66889730e-02, 5.14744781e-02, 1.06794968e-01, 4.02989775e-01,
          4.02989775e-01, 4.02989775e-01, 4.02989775e-01, 4.02989775e-01,
          4.02989775e-01, 4.70833248e-03, 1.59849483e-03, 1.43524781e-02,
          5.90478599e-01, 5.90478599e-01, 3.48069042e-01, 4.11376148e-01,
          7.53119215e-02, 2.21137870e-02, 2.25144438e-02, 0., 0.,
          7.00270355e-01, 7.00270355e-01, 2.42043976e-02, 8.05588625e-03,
          5.63270692e-03, 1.05181463e-01 ]
      - [ 4.10995245e-01, 4.10995245e-01, 4.10995245e-01, 3.64636183e-01,
          3.97982448e-01, 1.41633406e-01, 4.32855040e-02, 8.33221674e-02,
          4.10995245e-01, 4.86522824e-01, 4.86522824e-01, 2.92329460e-01,
          3.99770141e-01, 1.71917945e-01, 3.61270458e-02, 2.16522850e-02,
          9.17873606e-02, 4.86522824e-01, 4.77801800e-01, 2.79397041e-01,
          1.50318414e-01, 8.32458138e-02, 1.19979911e-01, 8.21695253e-02,
          4.26155835e-01, 4.77801800e-01, 4.77801800e-01, 4.52055931e-01,
          3.57373416e-01, 2.14245901e-01, 3.23821977e-02, 4.09964435e-02,
          4.14713435e-02, 4.52055931e-01, 4.52055931e-01, 4.52055931e-01,
          3.95725936e-01, 3.95725936e-01, 3.95725936e-01, 3.95725936e-01,
          3.95725936e-01, 1.16621263e-01, 2.32325792e-02, 2.05699787e-01,
          3.95725936e-01, 4.39338893e-01, 4.39338893e-01, 4.39338893e-01,
          4.39338893e-01, 4.39338893e-01, 1.16295978e-01, 5.22997119e-02,
          3.95584106e-02, 1.12665094e-01, 3.41647059e-01, 2.50608623e-01,
          3.41647059e-01, 3.41647059e-01, 3.41647059e-01, 3.41647059e-01,
          3.41647059e-01, 3.41647059e-01, 3.41647059e-01, 4.71321881e-01,
          1.64800808e-01, 4.27862033e-02, 8.39671195e-02, 5.31929098e-02,
          4.71321881e-01, 4.71321881e-01, 4.71321881e-01, 2.60471255e-01,
          5.56749463e-01, 5.56749463e-01, 4.04105276e-01, 2.40589101e-02,
          3.10928491e-03, 7.25280493e-02, 2.15612426e-01, 1.42425105e-01,
          3.72259080e-01, 4.15505081e-01, 4.15505081e-01, 1.63321972e-01,
          2.14060560e-01, 4.15505081e-01, 4.15505081e-01, 4.15505081e-01,
          2.11058483e-01, 1.24840528e-01, 3.27181406e-02, 6.86078742e-02,
          3.15721750e-01, 4.85915750e-01, 4.85915750e-01, 3.53877872e-01,
          2.81547695e-01, 4.08983171e-01, 2.13763729e-01, 1.26240347e-02,
          1.02405716e-02, 1.17449030e-01, 4.73224223e-01, 1.84053794e-01,
          4.73224223e-01, 4.73224223e-01, 4.73224223e-01, 2.27099881e-01,
          3.02156061e-01, 4.41826165e-01, 4.41826165e-01, 1.22426979e-01,
          1.44507512e-01, 4.41826165e-01, 4.41826165e-01, 2.93086082e-01,
          4.09487151e-02, 4.30728495e-02, 7.23046192e-04, 1.28638558e-03,
          5.68967126e-02, 3.10983509e-01, 6.16846263e-01, 6.16846263e-01,
          3.43863457e-01, 1.13115132e-01, 3.38894948e-02, 6.38194531e-02,
          3.43852133e-01, 4.30404484e-01, 4.30404484e-01, 4.30404484e-01,
          4.30404484e-01, 3.46051693e-01, 1.07243441e-01, 2.84111663e-03,
          1.51469596e-02, 1.35237366e-01, 4.60687637e-01, 4.60687637e-01,
          4.60687637e-01, 4.60687637e-01, 3.54692161e-01, 4.61828485e-02 ]
      - [ 4.97676373e-01, 4.97676373e-01, 1.78557378e-03, 2.95060296e-02,
          5.26472041e-03, 0., 5.83159849e-02, 4.97676373e-01,
          4.97676373e-01, 5.79838693e-01, 5.43346107e-01, 0.,
          9.26129818e-02, 1.23393178e-01, 4.90437113e-02, 8.97853315e-05,
          1.87310558e-02, 5.79838693e-01, 5.73514044e-01, 4.01430503e-02,
          0., 7.18600228e-02, 2.69301441e-02, 4.16167080e-03, 0.,
          5.73514044e-01, 5.73514044e-01, 6.12746418e-01, 4.23468411e-01,
          0., 0., 3.19808982e-02, 1.63443252e-01, 3.15950774e-02,
          1.86830223e-01, 6.12746418e-01, 4.24044847e-01, 4.24044847e-01,
          4.24044847e-01, 1.80642232e-01, 1.05353378e-01, 1.83525935e-01,
          4.24044847e-01, 4.24044847e-01, 1.38856918e-01, 3.73733073e-01,
          3.73733073e-01, 3.73733073e-01, 3.73733073e-01, 3.73733073e-01,
          3.73733073e-01, 3.73733073e-01, 4.44223396e-02, 1.28677055e-01,
          3.80373329e-01, 2.72601455e-01, 3.80373329e-01, 3.80373329e-01,
          9.71125364e-02, 3.80373329e-01, 2.10604385e-01, 3.80373329e-01,
          3.80373329e-01, 5.46621740e-01, 2.56821185e-01, 2.53419625e-04,
          2.26573134e-03, 1.83952391e-01, 5.46621740e-01, 3.02369624e-01,
          1.00834087e-01, 4.42215860e-01, 3.72157931e-01, 2.19962865e-01,
          3.87001872e-01, 3.87001872e-01, 3.87001872e-01, 3.87001872e-01,
          3.87001872e-01, 8.57706964e-02, 2.30303243e-01, 2.68940069e-02,
          4.08857435e-01, 4.08857435e-01, 3.98439914e-01, 4.08857435e-01,
          4.08857435e-01, 4.08857435e-01, 2.43536495e-02, 4.78617335e-03,
          1.19631300e-02, 3.85311157e-01, 4.53839511e-01, 1.49756461e-01,
          4.53839511e-01, 4.53839511e-01, 4.53839511e-01, 1.20643748e-03,
          2.34395713e-02, 1.74975395e-02, 1.20297621e-03, 2.32296856e-03,
          2.21177936e-02, 2.65709490e-01, 6.78524137e-01, 6.78524137e-01,
          5.06676640e-03, 3.17317955e-02, 1.51489735e-01, 0.,
          3.31736654e-01, 2.66514570e-01, 7.09252596e-01, 2.20263749e-01,
          4.77437019e-01, 2.66127791e-02, 9.31769684e-02, 1.22920349e-02,
          5.22158928e-02, 4.94476646e-01, 4.79915559e-01, 4.94476646e-01,
          3.55957419e-01, 3.82276893e-01, 0., 3.04552331e-03, 0.,
          1.19399177e-02, 2.23590985e-01, 2.69276202e-01, 6.53856218e-01,
          6.53856218e-01, 1.25582993e-01, 0., 0., 0., 0., 0., 0.,
          5.75680017e-01, 5.75680017e-01, 5.75680017e-01, 5.38767502e-03,
          0. ]
      - [ 6.23389423e-01, 6.23389423e-01, 3.68869752e-01, 1.47062913e-02,
          1.82987396e-02, 1.20012537e-02, 0., 0., 2.82466263e-01,
          6.41548693e-01, 2.79437155e-01, 5.20060621e-02, 1.94854457e-02,
          3.33389565e-02, 1.56818777e-02, 3.97864031e-03, 2.96450406e-01,
          6.41548693e-01, 6.96504474e-01, 0., 8.07112083e-03,
          1.19407028e-02, 1.24739625e-01, 3.32031660e-02, 1.14126399e-03,
          7.70633668e-02, 6.96504474e-01, 5.56488931e-01, 0., 0.,
          1.38931880e-02, 1.05457105e-01, 3.41726355e-02, 3.00284401e-02,
          1.60979837e-01, 8.01884651e-01, 1.79991767e-01, 5.29981017e-01,
          5.29981017e-01, 5.29981017e-01, 3.27667385e-01, 1.09761238e-01,
          0., 0., 1.60358865e-02, 1.00513265e-01, 1.82223648e-01,
          4.34972197e-01, 4.34972197e-01, 4.34972197e-01, 4.34972197e-01,
          2.73057520e-01, 2.51224879e-02, 3.46917778e-01, 2.44253218e-01,
          9.60207917e-03, 2.06600893e-02, 1.80724472e-01, 5.35067737e-01,
          5.35067737e-01, 2.05916926e-01, 2.28563435e-02, 5.35067737e-01,
          7.69567043e-02, 6.41438121e-04, 2.36823675e-04, 9.83123034e-02,
          5.41398227e-01, 5.41398227e-01, 2.33576208e-01, 2.12394580e-01,
          5.41398227e-01, 4.41824764e-01, 2.79769212e-01, 3.54822725e-01,
          4.41824764e-01, 4.41824764e-01, 9.10506248e-02, 0.,
          4.78529818e-02, 4.41824764e-01, 4.57419157e-01, 6.31226152e-02,
          8.98472741e-02, 4.57419157e-01, 4.57419157e-01, 4.57419157e-01,
          7.20383227e-02, 0., 3.75839412e-01, 4.65014309e-01,
          8.60120356e-02, 8.21228977e-03, 2.62730360e-01, 4.65014309e-01,
          4.65014309e-01, 2.12540343e-01, 9.34657454e-02, 4.65014309e-01,
